1582 50
the 0.465094 0.316277 0.111702 0.868169 -0.770987 -0.422389 -1.852127 1.010955 -0.894582 0.513056 0.995528 0.837303 -0.392018 -0.834450 -1.031008 -0.155781 0.131981 -0.568616 0.883219 -0.744425 0.405198 -0.680777 0.205485 -0.346279 0.676885 -1.381565 -0.360678 -0.366121 0.257784 0.233692 0.443971 0.281677 -0.720752 0.850448 0.511574 -1.231090 -0.822501 0.434007 -0.229439 -0.403285 0.492573 0.437395 -1.110610 -0.205397 0.407893 0.259543 -0.399954 1.672632 -1.041779 0.500019
. -0.430154 -0.438910 -0.294666 0.780843 -1.041953 -0.729517 -0.832772 0.253366 -0.959084 0.061692 0.280142 0.662385 0.005688 -0.179716 0.348494 0.351224 -0.149111 0.305957 0.715118 -2.477245 -0.310099 -0.882604 -0.734425 0.655677 0.912820 -0.457122 -0.011218 -1.117995 0.393216 -1.477475 -0.295024 -0.204695 -0.575654 1.064508 1.154593 -0.851825 -0.529367 0.366108 -1.397015 0.209470 0.315884 -0.296521 0.231412 -0.928209 0.831183 -0.154791 0.947424 0.024761 0.310963 -0.271717
and -0.279689 0.079133 -0.928753 -0.526204 -0.582732 -1.358424 -0.876885 0.551532 -0.839030 -0.107939 1.063714 0.978008 -0.135770 -0.148011 -0.468151 0.347868 1.447562 -0.396715 1.343737 -0.469506 0.314670 0.115180 -0.091663 0.210570 1.475801 -0.340045 0.159758 -0.134395 0.376832 -1.053247 -0.042776 -0.683757 -0.725040 0.904449 0.298505 -0.864480 -0.968868 0.144116 -0.395868 -0.289772 0.162226 0.282038 -0.760182 0.413065 0.351469 -0.443717 0.465866 0.491528 -0.552005 -0.846295
I 0.271205 0.851686 0.046770 -0.227527 0.313998 -1.825763 -0.083522 -0.251628 0.516204 0.934209 0.688694 0.645367 -0.463174 0.101265 -0.635889 0.660735 0.130770 -0.628344 1.505715 -0.853738 0.414443 0.084660 0.540287 0.325779 1.158200 -0.642982 -0.671627 -0.216593 -0.134884 0.308101 0.186138 0.519923 0.167667 1.250408 1.761332 -1.655941 -0.048906 -0.418694 -0.630920 -1.314360 -0.293395 -0.256824 -0.555621 -0.047369 -0.904321 -0.598097 0.978050 0.701294 -0.836090 0.032034
a 0.437776 0.380994 0.400461 -0.003064 -0.473540 -1.142839 -0.189036 0.402569 -0.529224 -0.141085 0.739983 -0.164076 0.324981 -1.106554 -0.000802 0.437679 0.883474 0.329655 1.377465 -0.569638 -0.513059 -0.503502 0.411087 1.388184 2.173336 -0.403572 0.170048 -0.376816 0.414101 0.687663 -0.507117 -0.151171 -0.444926 0.947339 1.791278 0.052540 -0.111064 0.181359 -0.120429 -0.287158 -0.154327 0.852007 0.655164 -0.135694 -0.438487 0.535232 0.624532 1.499917 0.364663 -0.666929
to 0.581835 0.315258 0.939422 0.023144 0.027306 -0.707032 -0.610737 0.260376 -0.059282 0.127023 1.482774 1.323504 -0.720216 0.092361 -1.181270 -0.427995 0.230364 0.838663 1.779549 -0.078568 0.870533 -0.850591 1.207560 0.583726 0.835319 -0.566814 -0.273850 -1.098793 0.310659 0.158877 0.027711 -0.493789 0.458245 1.470950 0.650167 -1.431000 -0.753875 1.077343 0.528141 0.438337 -0.117602 0.138452 0.076346 0.489179 0.629898 -0.442958 1.010376 0.775440 0.171309 -0.707356
is 0.060337 0.110554 -0.551414 0.653425 -0.567693 -1.225634 -0.270110 1.208791 -0.438381 -1.072337 -0.517806 0.363332 0.299277 -0.049607 -0.926122 0.225087 0.914316 -0.891584 1.854615 -1.795928 0.363998 0.259058 1.180312 0.052154 0.627364 -0.735500 0.124070 -0.617054 0.127059 -0.240261 0.161380 -0.859466 0.199380 0.405789 0.207533 -0.179554 -0.338474 0.706517 0.015784 -1.093464 -0.461619 0.672397 -0.537512 -0.544323 0.223683 1.194726 -0.268958 0.928171 0.472604 -0.480006
, -0.521237 0.468185 -0.755428 1.113058 -0.297337 -0.236999 -0.738727 1.233208 0.020474 -0.632619 -1.034530 0.368041 0.163562 -0.507141 -0.839002 0.204639 0.702140 -0.059544 0.656987 -1.143950 -0.236011 -0.670929 -0.171432 -0.090381 1.662422 -0.328362 -0.152924 -0.838032 0.198997 -0.745089 -0.345325 -0.410484 -0.528156 0.918031 0.028370 -1.830551 -1.085781 -1.027510 -1.297874 -0.789219 0.014094 1.094814 0.374780 0.221589 0.109286 -0.274319 0.658094 0.488512 -0.179325 0.007369
it 0.936370 -0.430389 0.077298 -0.068834 -0.845136 -1.833657 -0.171535 -0.250509 -0.352422 -0.233693 1.131682 0.242356 -0.161712 0.173982 -1.269363 0.349950 0.787442 -1.189723 1.358322 -0.499336 1.020481 -0.135834 1.041311 0.291747 1.189480 0.203154 0.086516 -0.384910 -0.428650 0.475742 0.126248 0.670270 -0.077596 1.192613 0.422704 -0.397418 -0.808395 -0.065416 -0.475056 -0.088092 0.218272 1.162396 -0.203661 -0.175697 0.174638 -0.312949 1.059470 0.322965 -0.542504 -0.154449
of -0.318054 0.834790 -0.633223 -0.243859 -0.270532 -0.878760 -1.533208 0.619548 -2.294257 0.102414 0.124693 0.649541 0.097623 -1.706370 -0.954831 0.971575 -0.490829 0.566021 0.231102 -0.029103 0.928251 0.006176 0.476551 1.023901 1.508677 -0.875125 -0.170240 0.033590 0.364847 -0.247497 0.707620 0.140698 0.090641 0.600120 0.923453 -0.190535 -0.092497 -0.196533 -0.404520 -0.471045 -0.494920 0.409118 -0.172730 -0.436729 0.160842 -0.185657 0.146729 0.774574 0.338309 -0.070005
for -0.040797 -0.318779 0.420653 -0.040076 -1.073771 -1.197518 -0.188988 -0.262688 -0.910965 -0.439714 0.741307 0.539019 -0.829241 -0.447957 -0.641570 0.364820 2.297764 0.660545 0.817009 -0.463423 -0.524268 -1.415421 0.791674 0.366989 1.347359 -1.201243 -0.400365 0.353726 -0.749964 0.081987 0.005579 -0.411929 0.437935 1.212701 0.437641 -0.416518 0.280646 0.221031 -0.361900 -0.318201 -0.936669 -0.294578 -0.248803 -0.785161 0.316249 0.332301 0.058375 0.204111 -0.302447 -0.385485
was -0.128862 -0.605877 -0.352726 -0.135718 -0.883391 -0.450411 -0.106533 0.765327 -0.679017 0.082724 0.049093 0.318642 0.332169 0.061544 -0.400462 0.705274 -0.033570 -0.401177 1.393074 -1.439854 0.024719 -0.359115 0.477762 0.766755 0.944484 -1.079307 -0.283016 -0.211477 -0.714797 -0.735799 -1.453922 1.365732 -0.277388 0.010072 0.359245 -1.586021 -0.830568 0.022531 0.048947 -0.972821 0.854682 0.786873 -0.587176 0.015147 1.004260 -0.419641 1.338382 0.297327 -0.252173 1.026531
The 0.024315 0.167753 -0.462571 -0.269674 -1.039688 -0.588690 -0.816017 0.641812 -0.499227 -0.441792 -0.909752 0.316406 -0.250942 -1.589027 -0.280178 0.381073 0.407177 -0.478239 1.224422 -1.412820 -0.892063 0.893936 0.243241 0.242314 0.434266 -1.481200 -0.095356 -0.025568 0.185350 -0.589832 -1.196679 -0.288628 -0.222432 0.484102 -0.021435 -0.836930 -1.193774 0.494350 0.632725 -0.828462 0.039278 0.376970 -1.599825 0.267194 0.855784 0.899695 -0.411974 1.368716 -0.021436 -0.346228
this 0.220980 0.425141 0.089186 0.656640 -0.485232 -0.842949 0.377805 -0.137327 -0.663607 -0.071192 0.389288 0.482653 -0.226386 0.153393 -1.185176 -0.216875 -0.023053 -0.466680 0.988788 -1.278724 0.419258 -0.893656 1.604612 0.579041 1.041180 0.356639 -0.083395 -0.462845 -0.567976 0.232423 0.486243 -0.062207 0.264287 0.998979 1.726158 -0.237619 0.617730 -0.031574 -0.368874 -0.935503 0.186128 -0.293012 -1.112779 -0.350720 -0.379895 -0.188602 -0.231766 0.890486 -0.376388 -1.031794
in -0.047060 0.769626 -0.226300 0.479468 0.133810 0.107600 -1.547931 0.711604 -1.136355 0.514271 1.098004 0.805748 -0.440615 0.328624 -0.412517 -0.316167 0.021971 -0.685198 0.486259 -1.003528 -0.277881 -0.234548 0.064825 0.400876 1.768349 0.346209 -0.814855 0.032771 -0.754895 -0.096175 -0.006221 0.014679 0.273465 0.389522 1.541181 -0.270619 0.131369 -0.282083 -0.678007 0.202016 -0.260691 0.509671 -0.323397 -0.100011 0.528791 0.475303 0.534184 0.861073 0.782173 -0.266245
with 0.411045 1.669024 -0.334954 0.011901 -0.760733 -0.571716 -1.210247 0.284952 -0.385515 0.076241 0.135091 -0.767233 0.613927 -0.144400 -0.234651 -0.236674 0.301857 -0.113616 1.331810 -0.325550 0.074587 -0.692533 1.224074 0.524588 1.656938 -0.155803 -0.252064 0.058680 0.042827 -0.951342 -0.217332 -0.029492 0.296299 -0.001068 1.382048 -0.046197 -0.151232 -0.243116 0.487702 -0.323925 0.074274 0.232527 -0.161501 0.245795 1.100054 -0.633202 0.756200 0.709362 -1.033594 -0.678729
that 0.228440 -0.030490 -0.271458 0.819687 -0.498607 -0.381688 -0.305306 0.571766 0.254025 0.847954 0.275365 0.633554 -0.025151 -0.923179 -0.385376 1.002824 0.891582 -0.943584 0.976226 -0.623664 0.677902 -0.046097 1.494061 0.088204 1.095013 -0.332060 -0.276394 -0.283893 -0.036904 -0.045308 0.093071 0.397150 0.664167 0.642468 1.086304 -0.676028 -0.560832 0.123174 0.367778 -0.258859 0.063453 1.068834 -0.643813 -0.138865 -0.165738 -0.376041 0.375220 0.817491 -0.257061 0.069912
you 0.174187 0.835695 -0.256657 1.864050 0.079021 -1.106488 -0.962129 -0.499405 0.757660 0.260887 0.374357 1.219108 -0.162511 -0.263270 -0.457431 0.381543 0.749560 -0.103393 -0.076765 -0.344251 -0.247545 -0.686418 1.239095 -0.575085 1.666619 -0.303529 -1.000987 -0.910153 0.092262 0.490037 0.251026 -0.023663 -0.037701 0.792748 0.197203 -0.475677 -0.379962 0.288226 0.109445 0.444572 -0.152443 1.179138 -0.047433 -0.748760 -0.576040 0.125152 -0.007325 0.914706 0.722615 -1.334465
have 1.163714 1.335921 0.349436 -0.326925 -0.482268 -0.893450 -0.895140 -0.455534 -0.033679 0.429720 0.352842 0.382836 -0.507256 -0.509292 0.151654 -0.048020 -0.302856 -0.487483 1.216032 -0.243169 -0.011657 0.744358 -0.028088 0.049787 1.053264 -0.338139 -0.177255 -0.302119 0.152700 0.175784 0.543439 -0.371210 1.142772 1.350371 0.926318 -0.858836 -0.435625 0.238840 -0.977365 -0.538562 -0.359927 0.479394 0.299683 0.125073 -0.483372 0.123864 0.934661 0.685627 -0.613336 -0.344954
but 1.282805 0.400226 -0.100671 0.593872 -0.182479 -0.363639 -0.348055 0.514665 0.402532 -0.414959 -0.227493 0.079779 0.051942 0.127094 -0.789728 0.514016 0.576214 0.110590 1.349329 -0.707595 -0.020293 0.062758 0.279008 0.653784 1.072896 -0.320324 -0.288176 -0.551324 -0.025262 0.555454 0.161871 0.493721 0.098113 1.210260 0.494001 -1.203673 -0.453312 -0.043468 -0.686752 -1.270786 0.259868 0.852063 0.392157 -0.539075 0.581373 0.247641 0.493326 0.379561 -0.310262 -0.334753
not -0.029232 1.137317 0.310299 0.240121 -0.938614 -0.431938 0.214667 0.474778 -0.459578 -0.036847 -0.550979 0.155077 0.143954 0.691283 -0.562007 0.840453 -0.011823 -0.817550 1.620156 -0.280590 0.226377 -0.066357 0.727929 -0.247809 0.967098 -1.094504 -0.425293 0.028689 -0.111501 0.220827 -0.188962 0.589236 0.762535 1.141566 0.198558 -0.573828 -0.587653 0.691336 -0.442212 0.447311 -0.605855 1.287881 0.027055 -0.980229 0.359189 -0.493286 0.382110 0.377788 -0.187772 -1.055763
my -0.990300 0.392692 0.005979 -1.049734 -0.904709 -0.285271 -1.255744 -0.580825 -0.631933 -0.046472 0.115094 -0.006224 -0.314391 0.675933 -1.011574 -0.175057 0.551929 -0.308467 1.353021 -0.292744 0.896132 0.036173 1.238177 0.517582 0.791835 -0.369978 -0.537976 -0.093132 -0.679854 -0.740227 -0.109644 -0.261788 -0.165784 0.924286 1.600036 -0.464453 0.331109 0.036817 -0.069528 -0.662813 -0.761955 -0.470677 0.511870 -0.238818 -0.421308 -0.125486 0.554103 0.908083 -0.150617 0.862191
on 0.336195 0.342373 0.420337 0.075868 -1.217263 -0.101898 -1.695849 -0.307058 -0.415342 0.124662 0.765165 -0.136620 0.267878 -0.952852 -0.602170 0.592091 0.797717 0.659365 0.429512 -0.534279 0.475654 -0.066272 0.560797 0.398180 0.682925 -0.395312 -0.538421 -0.915098 -0.762465 0.342797 0.128019 -0.129760 -1.266340 0.735856 1.127923 -0.238832 -0.169371 0.607283 -0.043147 -0.193131 -0.042525 0.562869 -0.324221 0.461725 -0.021713 -0.248364 0.344944 0.710794 -0.172736 -0.331601
food -0.397390 -0.041872 -0.710329 0.035443 -0.583619 -0.528562 -0.740949 0.688059 -0.723516 -0.487785 -0.340669 1.217271 0.080411 -0.192169 -0.480480 0.302295 0.264793 0.159015 0.261412 -1.403585 -1.091713 -0.627867 0.307490 -0.116379 1.215676 -0.300178 -0.668834 -0.584651 -0.394178 -0.634999 -0.735782 -0.043765 0.766248 -0.110321 -0.272927 -0.880787 -0.832606 0.137328 -0.941735 -0.726815 0.765068 0.333385 -0.503228 -0.148343 0.690902 -0.010466 0.278980 0.283059 -0.556658 -0.252599
had 0.983400 0.249037 0.514343 -1.032075 -0.941148 -0.280217 -0.178055 -0.050482 -0.744961 0.299443 0.383303 0.306811 -0.690659 -0.557527 0.110583 0.035164 -0.006381 -0.508403 1.211678 -0.159019 0.197787 -0.231708 -0.140551 0.478447 1.191161 0.056123 0.421523 0.530971 -0.150427 -0.836186 -0.469171 -0.009942 1.138002 0.777128 0.657120 -1.445768 -0.299367 -0.359356 -0.946604 -0.351977 0.018367 0.458541 0.073690 0.762875 -0.225206 -0.226881 0.982187 1.112381 -0.810331 0.792451
great -0.297757 -0.322880 0.147672 -0.195470 -1.252023 -0.241056 -0.318201 0.387269 -0.805899 -0.921792 -0.021333 0.703005 0.138366 -0.676103 0.707808 -0.305955 0.608834 0.341182 0.639454 -1.090648 -0.902338 -1.001665 0.834682 0.041186 1.323266 -0.075117 0.273795 -0.293696 -0.432513 -0.061008 -0.306731 -0.411199 0.626114 0.059683 0.530013 -0.033803 -0.460842 0.812384 -0.581934 -1.044310 0.416845 0.950619 -0.203939 -0.299959 -0.272365 0.564951 -0.376014 0.396430 -0.482706 -0.272739
very -0.605025 0.309874 -1.023193 -0.132211 -0.627369 -0.338912 -0.348718 0.333409 0.053346 -0.023556 0.353472 0.061263 0.838109 0.926531 0.128987 -0.419721 0.318844 -0.454128 1.750199 -0.701427 -0.335395 -0.322947 -0.032670 0.086369 1.042780 -0.766239 -0.244984 0.490746 0.231859 -0.051979 -0.179759 0.171704 -0.204529 0.536145 0.781527 0.269780 -1.570685 0.471244 0.588304 -0.619187 0.313193 0.486897 -0.074460 -0.367170 1.317447 0.723228 0.267129 0.080442 -0.939611 -0.461334
are -0.019544 0.243359 -0.731808 0.865745 -0.539059 0.206781 -1.286902 0.402374 0.699349 0.183901 -0.295871 1.004076 0.013314 -0.483080 -0.160247 0.396436 1.018104 -0.122901 0.574317 -0.120345 -0.231188 0.544680 0.627774 -0.013824 0.941482 -0.073037 -0.290480 -0.104571 0.680054 -0.634074 -0.053890 -0.498193 0.625242 1.419687 0.457352 0.134404 -0.763827 -0.021688 -0.002514 0.280770 -0.692374 0.828336 -0.194246 -0.667827 1.432373 0.856275 -0.679885 -0.240891 0.309529 -0.633478
so -0.171208 0.476442 -0.063441 0.595322 -1.370018 -0.052930 -0.647435 0.708597 -0.067915 0.629749 0.052333 0.765801 -0.017238 0.725889 -0.385829 0.059400 0.684836 -0.029998 1.139780 -0.356775 -0.491096 0.603317 1.152828 -0.124437 1.132799 -0.394764 0.370368 -0.391495 -0.746273 0.136000 -0.373733 0.118583 0.023730 0.873212 0.485498 0.131142 -0.090458 0.078944 -0.185736 -0.955048 0.401948 0.833262 -0.030018 0.385209 -0.349218 0.182733 1.148645 0.028959 -0.245820 -0.427541
good -0.092373 -0.084387 -0.557827 -0.323699 -0.677402 -0.144185 0.104386 0.708379 -0.380768 -0.506686 0.075117 0.675346 0.296893 -0.270324 -0.622696 0.470273 0.097543 -0.055427 0.921809 -1.335948 -0.534886 -0.361551 0.241692 0.440364 1.405252 0.164735 -0.101268 -0.707284 -0.177651 -0.017115 -0.566260 0.206833 0.244831 1.027226 0.455949 0.274140 -0.610254 0.093548 -0.269066 -0.795655 0.320924 0.674801 -0.145138 -0.738011 1.056678 0.193476 -0.146884 -0.396965 -0.487036 -0.313989
It 0.254875 -0.187433 0.081760 -0.624792 -0.320068 -0.939320 0.404482 -0.110290 -1.261735 -0.159253 0.955514 0.066718 0.346052 -0.155791 0.842937 -0.364410 0.373035 -0.479953 1.255348 -0.401468 1.311243 0.027360 0.691261 0.192412 1.031108 -0.589320 0.365270 -0.108303 -0.405722 0.430772 0.189281 0.354499 0.417276 0.385127 -0.375901 0.210091 -1.228711 0.642178 0.963958 -0.716535 -0.329411 1.699011 0.228846 -0.507402 -0.167315 0.893216 1.278860 0.555639 0.579171 0.076029
be 0.472373 0.455324 -0.031324 1.506781 -0.521351 -0.912264 0.073570 0.428981 -0.272327 0.296621 -0.282584 0.509670 -0.097136 0.859639 -0.048230 0.934841 -0.038871 0.299462 0.987404 -0.367295 0.409283 0.188545 0.604438 -0.148675 0.435858 -0.811091 0.162085 0.143461 0.568784 0.243378 0.260365 0.688225 0.191492 0.856846 0.504305 -0.887582 -0.367544 -0.138263 0.112571 0.552545 0.012098 0.507439 -0.035859 -0.038119 0.004112 -0.099158 1.287266 0.777042 0.602519 -1.355631
! 0.194777 -1.232170 0.433855 0.547342 -1.019184 -0.614860 -0.377212 0.007310 -0.815276 -0.479981 -0.370904 0.490635 -0.629592 0.540512 0.952223 -0.294555 -0.027701 0.093215 0.290579 -1.498107 -1.035393 -0.717065 0.507448 0.019585 0.118064 -0.075480 -0.096100 -0.409823 0.013319 -0.502961 -0.407966 -0.134778 0.819305 0.335099 -0.044583 -0.553303 -0.061455 -0.008083 -1.415678 0.530708 0.566392 -0.084174 -0.217888 -0.589308 0.850875 0.203244 0.495951 0.252512 0.374338 -0.093185
at -0.016769 0.720706 -0.065456 0.062419 0.092723 -0.731027 -0.873311 -0.090025 -0.344368 -0.045050 0.663320 0.952992 -0.006955 -0.252328 -0.483524 -0.220231 -0.557155 -0.753532 0.204699 -0.767878 -0.621947 -1.058500 -0.171694 0.451844 1.342269 -0.413611 -0.808800 0.251247 -0.406699 0.037785 -0.571107 0.071624 0.188455 0.244327 0.216528 -0.389714 -0.651679 0.428549 -1.313695 0.775873 -0.516447 0.771541 -0.395299 -0.234053 0.947697 0.115498 0.148537 -0.437895 0.001255 0.199295
place -0.154934 0.018312 0.138288 0.466914 -0.180378 -0.336686 0.111498 0.154222 -1.006236 -0.972160 -0.136104 0.698323 -0.035315 -0.091022 -0.235123 -0.718123 -0.389964 0.260142 0.724312 -1.648782 -0.118376 -0.795651 0.816786 0.445142 0.812470 0.478298 0.243813 -0.616474 -0.603752 0.179163 -0.264251 -0.405389 0.115063 0.329894 0.775711 -0.754145 -0.529982 0.403201 -0.479881 -0.533626 0.074654 0.508446 -0.703127 0.197554 -0.247145 0.265019 0.243176 0.454111 0.668927 -1.187459
they 0.370206 0.297572 0.111959 0.055797 -0.439061 -0.278694 -0.333568 -0.435262 0.426123 0.279336 0.206178 0.965204 -0.719121 -0.674279 -0.636880 0.592677 0.335577 -0.690999 0.506910 0.439218 0.391219 -0.135561 0.667684 -0.474067 1.257137 -0.089837 -0.515956 -0.598514 -0.029158 0.070309 -0.373650 0.348261 0.233664 1.664838 -0.780768 -0.671292 -0.960467 -0.025357 -0.371309 -0.315730 -0.617501 1.194600 -0.198796 -0.841672 0.459968 -0.492808 -0.402327 0.164138 -0.032819 0.205602
we -0.028117 0.191114 0.533264 0.511256 -0.599901 0.999172 -0.267323 -0.569488 -0.646742 0.880904 -0.287345 0.853962 -0.813191 -0.444606 -0.190825 0.316243 0.627291 0.074068 0.068812 0.333440 -0.472280 -0.442595 -0.001732 0.400912 1.175619 -0.291497 0.271522 0.509439 -0.154463 0.190557 -0.519211 0.703472 -0.091851 1.652653 0.201305 -1.856856 -0.716952 -0.495373 -1.455096 -0.398177 -0.061709 0.975017 -0.462412 0.165834 -0.209264 -0.628141 0.718613 0.026743 -0.150781 -0.059069
all -0.312144 0.343238 -0.501813 0.058248 -0.176170 -0.232142 -1.543696 -0.127042 -0.314003 -0.083740 0.715343 0.948891 0.296421 -0.116633 -0.628825 -0.315834 -0.057099 -0.405352 0.311469 -0.242741 0.587651 -0.222194 0.847586 0.057352 1.084882 -0.142469 -0.545259 -0.092147 -0.568210 0.131230 0.544161 0.129548 0.516870 0.530005 0.756165 0.006185 -0.788989 0.267391 -0.211902 -0.265024 -0.399278 1.051666 -0.227106 -0.352426 0.773372 0.437078 0.220774 -0.455836 -0.321491 0.405252
n't -0.325451 0.910808 0.558091 0.185376 -0.545475 -0.645526 -0.482601 -0.258551 0.086299 0.637589 0.089951 0.733444 -0.199974 0.201596 0.799182 0.667769 -0.703926 0.227659 0.278825 -0.723641 -0.139393 -0.362640 0.537154 -1.081436 0.980207 -0.495402 -1.148024 -1.718036 -0.658331 0.288142 -0.065582 0.621720 0.477687 0.469556 -0.480507 -0.741014 -0.274310 0.337065 -0.601895 -0.458122 0.034519 1.127141 0.306758 -1.156235 -0.630978 -1.124436 0.724021 0.459113 -0.172478 -0.364347
as -0.224294 -0.393736 0.076283 0.412944 -0.053420 -0.696591 -0.313427 0.451624 -0.768232 0.408681 -0.143219 1.155684 -0.065803 0.874488 -0.626765 -0.555693 0.584572 -0.677364 1.165655 0.533630 -0.247282 0.433848 0.826669 0.783169 1.137521 -0.383486 0.272494 -0.056484 0.389183 -0.951792 -0.471139 0.583979 0.030420 1.139585 -0.157454 0.221565 0.046324 -1.032757 -0.678966 -1.148783 0.357648 0.329028 -0.131829 -1.268998 0.381965 0.737940 -0.401508 -0.130649 0.319201 -0.246272
were 0.044385 -0.219970 -0.457092 -0.055822 -0.814672 1.121322 -0.128447 0.174400 -0.601232 0.950106 0.295495 0.658093 -0.389908 -0.900484 1.002893 0.831196 0.771821 0.415052 0.212331 0.261013 0.088850 -0.545162 -0.686496 0.580656 1.391536 -0.394858 0.150374 0.401498 -0.007458 -0.611713 -0.794458 0.703059 0.090272 1.652971 -0.311461 -0.816335 -1.002915 0.067354 -0.419331 -0.464578 -0.047670 0.846370 -0.281367 -0.068512 1.005673 -0.349932 0.434302 -0.578095 -0.288925 0.177929
would 0.445104 -0.229837 0.625053 0.046744 0.355112 -1.204235 0.331865 -0.237132 -0.145300 0.025731 0.322815 0.773509 -0.563248 0.266055 0.095243 0.941928 -0.015902 -0.108671 0.713052 -0.572419 0.607524 0.010285 0.566475 -0.182785 0.175440 -0.304279 -0.387990 -0.004234 0.122753 0.615204 0.441936 0.665277 0.853322 0.803860 0.770345 -1.732366 -0.306713 0.187436 -0.741306 0.283786 -0.235873 0.617400 -0.555675 -0.509068 -0.496123 -0.588491 0.396439 0.694251 0.057161 -0.846673
laptop -0.177326 0.209344 -0.106260 0.048627 -1.042017 -0.920718 0.353845 -0.249761 -1.167870 -0.149861 0.357795 0.586809 -0.213422 0.395621 -0.847005 -0.214014 0.057155 -0.806083 0.934433 -0.710942 0.357048 -0.472265 1.036378 -0.052119 0.801704 -0.175000 0.157577 0.547690 -0.395850 0.011557 0.061521 -0.299350 0.569816 0.413337 0.659305 0.143241 0.163008 0.395871 0.027235 -0.240541 -0.168157 -0.352101 -0.641517 -0.015872 -0.410438 0.636652 -0.140944 1.024142 -0.517024 -0.319312
has 0.612703 0.177041 -0.246219 -0.279716 -0.648754 -0.558531 -0.085256 0.056573 -1.274478 -0.321222 0.402321 -0.124201 0.121714 -0.810521 0.474256 -0.597521 0.507205 -0.377797 0.944826 -0.677969 1.072249 0.119895 -0.182821 0.052913 0.614252 -0.017324 0.657106 0.220987 0.085031 -0.032836 0.859826 -0.779478 0.221897 0.639823 0.198725 0.002871 -0.924637 0.337243 -0.181689 -1.327028 -0.486371 0.643024 -0.199890 0.286146 -0.620870 1.109268 0.327149 0.631604 -0.083513 -0.268253
This -0.448465 -0.251723 0.050574 0.257646 -0.189427 -0.320830 0.797498 -0.307522 -0.984738 -0.970036 -0.344001 0.175095 0.061948 0.042096 -0.143557 -0.931069 -0.904508 -0.405265 1.108131 -1.180829 0.978753 -1.148694 1.584214 0.722838 0.360058 -0.124508 0.462048 0.354615 -0.492637 0.426013 -0.099892 0.018862 0.272693 0.214390 1.098629 -0.253498 -0.332953 0.615659 0.589993 -0.966871 -0.570382 0.355928 -0.533274 -0.329480 -0.366355 1.337162 -0.043452 0.964462 0.419708 0.008484
computer -0.253698 -0.311910 0.025329 0.055738 -1.162654 -0.015191 0.358232 0.026313 -0.762635 -0.378720 0.067979 0.711896 -0.191465 0.361163 -0.869923 -0.337378 -0.119817 -0.774820 1.106803 -0.784200 0.476882 -0.303646 0.953131 0.004623 0.497668 0.203627 0.501432 -0.187319 -0.160704 0.048428 -0.242407 -0.068743 -0.152017 0.941324 1.061658 -0.258537 -0.235712 0.352853 -0.107463 0.003495 -0.008425 0.484703 -0.476059 -0.107179 -0.372373 0.284550 -0.121892 1.067905 -0.277860 -0.700203
just -0.077890 0.151650 -0.227723 0.612938 -0.419660 -0.541182 0.158803 0.372965 -0.519151 0.212068 0.753163 0.312343 0.203446 0.543489 -0.183815 0.152614 1.260721 -0.424224 0.420818 -0.338260 0.696517 -0.686431 0.853256 -0.190316 1.146084 0.052268 -0.052195 -0.226393 -0.799342 -0.173906 0.270554 0.537473 -0.145456 0.466561 0.041246 -0.092469 -0.142643 -0.303299 -0.262566 -0.747681 0.029755 0.690928 -0.452151 -0.474319 -0.266349 -0.439790 0.519044 -0.400600 -0.114498 -0.432282
service -0.224221 -0.190223 -0.941392 0.255673 -1.322444 -0.950315 -0.154731 0.777120 -0.698865 0.263441 -0.133228 0.806699 0.183717 -0.460160 0.512950 0.263695 -0.284679 0.340040 0.751032 -0.791532 -1.029084 -0.217828 0.142245 -0.199328 0.798863 -0.719903 0.636258 -0.663513 0.877466 -0.855878 -0.383891 -0.010189 -0.088246 0.252057 -0.400202 -0.229104 -0.706988 0.147886 -0.450134 -0.657750 1.467253 0.167165 -0.375952 0.132497 0.417188 0.036822 0.166301 0.541467 -1.051477 -0.241437
like 0.924355 0.214696 -0.693632 0.273263 -0.030331 -0.505990 -0.203970 -0.087256 -0.009321 0.248548 0.725453 0.651605 -0.189724 -0.576778 -0.259055 0.510645 0.259135 0.176519 0.366315 -0.257906 0.631348 0.043715 -0.165976 -0.144026 1.323258 -0.008018 -0.823660 -0.872765 0.034223 -0.370230 0.383189 0.250392 0.236107 0.704676 -0.077149 -0.368074 0.061711 0.308293 0.359558 -0.835954 0.309379 0.354552 0.163130 -0.919546 0.036858 -0.032055 -0.339498 0.953549 0.344235 -0.114067
or 0.353874 0.392538 0.281325 0.483674 -1.103934 -0.594841 -0.549109 0.656807 -0.019571 -0.167094 -0.083411 0.283295 -0.250825 -0.301380 -0.540906 0.489248 0.788560 0.370671 0.566977 0.205119 0.057550 -0.395420 0.584218 -0.309520 1.250794 -0.261433 0.098771 -0.879891 0.100035 -1.182610 -0.031989 -0.684900 0.270129 0.553838 0.178208 -0.115887 0.959435 -0.341613 -0.547758 0.800475 0.082917 0.127948 0.785874 0.164652 -0.358639 -0.939693 0.114168 0.413276 0.017780 -0.297438
one 0.225553 0.115515 0.237349 0.457027 -0.355598 -0.691705 -0.504037 -0.289488 -1.194273 0.163012 -0.157874 0.934131 -0.241374 -0.376852 -0.784203 0.501050 -0.068306 -0.222670 0.329034 -0.193530 0.647416 0.338053 1.278415 0.874538 0.545213 -0.327837 0.181035 0.329432 -0.192773 -0.242349 -0.047848 0.340536 0.297540 0.327360 0.883384 -0.604000 0.475800 -0.295107 -0.391744 0.031060 -0.131423 0.460225 -0.747424 0.368353 -0.398805 0.093921 0.335336 0.931713 1.133637 -0.202383
's -0.764288 -1.020525 0.230503 0.075275 -0.340266 -0.632246 -0.013429 0.846034 -0.413578 -0.362033 0.411830 0.396408 0.165109 -0.499400 0.238624 0.183898 0.345355 -1.144742 0.873024 -1.161259 0.660613 -0.413601 0.467497 -0.368519 1.020940 0.144143 -0.217325 -0.653552 -0.556097 0.066785 -0.253435 -0.535602 0.195814 0.290814 0.526278 0.015795 -0.781137 -0.000490 -0.402313 0.343195 -0.641815 1.177417 0.149519 -0.370108 -0.277881 0.736781 0.615537 0.301457 0.712009 0.454572
get 0.368125 0.095954 0.147918 0.663190 -0.750978 -1.100204 -0.765846 -0.527198 -0.078666 0.270200 0.497589 0.990487 -0.281761 -0.009485 -0.820626 0.418307 0.514100 0.362049 0.137962 -0.180232 -0.262658 -0.158662 1.050083 0.044059 0.703420 -0.054347 -0.051091 -0.713786 0.035848 0.025839 -0.028910 -0.162455 0.242721 0.599295 0.357616 -0.223564 -0.079478 0.196687 -0.150535 0.638101 0.359800 0.252070 0.029236 0.097957 -0.049515 -0.357241 0.930726 0.152007 0.268010 -0.775343
can 0.360580 0.864966 -0.283055 0.649629 0.484452 -1.146844 -0.331902 -0.039912 0.580524 0.726543 0.245026 1.401223 -0.085822 -0.066942 -0.854498 0.669543 -0.105320 -0.090029 0.539873 -0.620351 0.143651 0.955466 1.035909 0.164001 0.840480 0.262261 -0.491328 -0.661809 -0.015607 0.314525 -0.028804 -0.290107 0.695495 0.640362 0.547237 0.082394 -0.293661 0.039640 0.224233 -0.073727 -0.422546 0.683192 -0.637347 0.116588 0.097273 0.103443 0.780006 -0.117081 0.632344 -1.375037
me 0.101705 0.593844 0.366172 -0.126863 -0.358741 -0.265649 0.382916 -0.988020 -0.684986 0.788144 0.524228 -0.116028 -0.354668 -0.714281 0.091011 -0.333616 0.620630 -1.052180 0.656228 0.429220 0.870150 -0.451005 0.861787 0.609719 1.224051 -0.017060 -0.156651 -0.517730 0.364605 -1.226377 -0.843740 -0.153239 0.330683 1.123903 -0.285488 -0.215736 -0.474991 0.409642 0.538045 -0.204806 -0.230865 0.348499 0.256359 -0.452314 0.004258 -0.749479 0.585322 0.865549 0.997094 0.210572
from -0.550874 0.016184 -0.516535 0.580628 -0.331798 -0.787305 0.385350 -0.345025 -0.416858 0.367658 0.031316 0.301690 -0.058480 -0.780588 -0.688503 0.252492 -0.236678 0.199041 0.255467 -0.386689 0.706980 -0.374692 0.112240 0.581180 0.495958 -0.349342 0.288487 -0.069408 0.446753 0.442046 0.255100 -0.373930 -0.830981 0.867477 1.008017 -0.346460 -0.383706 0.101723 0.149526 0.029857 -0.310066 -0.571892 -0.102430 0.360990 -0.474215 0.133372 0.652049 0.607854 0.067795 -0.387437
there 0.131598 0.344722 0.339086 0.600774 -0.240475 -0.429020 -1.257312 -0.605881 0.704515 0.390736 -0.028161 0.022198 -0.018734 -0.269581 0.903081 0.088130 1.002970 0.191141 0.459402 -0.516665 0.166240 -0.067630 0.927557 0.407878 0.670223 -0.177920 0.002831 -0.155155 -0.172282 -0.773342 -0.069425 0.051554 -0.254810 0.875467 0.757798 -1.003489 -0.462762 -0.301344 -0.445813 -0.807623 -0.859692 0.899850 -0.430151 0.043432 -0.157692 -0.136612 0.779508 -0.793239 0.414451 -0.023097
an 0.486633 0.324360 0.263598 0.644646 0.098168 -0.809980 0.169516 -0.344653 -1.349841 -0.013168 0.127767 0.307811 -0.292661 -0.050402 0.289448 -0.518534 0.731527 0.375850 0.369164 0.253774 -0.159082 -0.430170 0.654308 0.762230 0.238892 -1.002098 0.216797 -0.008338 0.746402 -0.524368 0.343060 0.221232 0.479377 0.050653 -0.638893 -0.797126 0.006008 0.649598 -0.351008 -1.270935 0.732024 -0.137512 -0.064762 -0.447594 0.139831 -0.069551 0.417121 0.504658 0.562060 -0.414406
about 1.137743 0.539746 0.256571 0.353740 -0.397053 -0.589288 -0.013899 0.197044 -0.013272 0.348527 0.264087 0.417736 -0.393884 -1.261468 -0.271484 0.314558 0.051359 -0.178136 0.372441 -0.807562 0.328665 -0.416249 0.449406 -0.031991 0.856836 0.092460 -0.104661 -1.314533 -0.647617 -0.306750 0.233417 -0.136848 0.509641 0.989600 -0.132084 0.358268 0.639124 -0.084785 -0.479560 -1.447733 -0.075474 -0.103570 -0.561115 -0.481645 -0.041251 -0.174563 -0.200205 -0.236103 -0.136665 0.409307
if 0.109613 0.642758 0.198674 1.267973 0.006265 -0.306969 -0.013788 0.359704 0.521262 0.220451 -0.130675 0.670437 -0.579984 0.485433 -0.655594 0.141088 0.842418 -0.207269 0.505257 0.139354 -0.503914 -0.423517 0.926112 -0.366716 1.432133 -0.372924 -0.631893 -0.475214 -0.313462 -0.235876 -0.562737 0.224786 0.322461 0.860330 -0.327397 -0.968258 0.285313 -0.164948 -0.092521 -0.055856 -0.230429 0.508314 -0.044477 -0.470966 -0.537106 -0.290069 -0.157545 0.695208 0.735970 -0.762838
do -0.147598 0.888772 -0.120728 0.146372 -0.547520 -0.633090 -0.449711 -0.506960 0.344515 0.383077 -0.057554 1.170653 -0.076933 -0.045765 -0.511355 0.607250 -0.549036 0.353424 0.261167 -0.166073 0.523294 0.156639 0.947543 -0.685072 0.891974 0.109329 -0.814843 -1.273079 -0.476698 -0.018245 0.190235 -0.035056 0.614279 0.906226 -0.342538 -0.084855 -0.217126 0.281395 -0.287945 -0.389707 -0.297081 0.714087 0.124709 -0.648436 -0.125781 -0.720747 0.337900 -0.237673 -0.205824 -0.757672
restaurant 0.282764 0.591418 -0.196029 0.423165 -0.287299 -0.036216 -0.109250 0.492509 -1.376613 -0.279013 -0.239093 0.279342 -0.096072 -0.445932 -0.345836 -0.279221 -0.732083 0.102598 0.378909 -1.250577 -0.178568 -0.576698 -0.130190 0.590277 0.918786 0.078609 -0.017475 -0.259266 -0.410289 -0.165740 -0.204490 0.045306 0.061173 0.343566 0.432167 -0.334641 0.131712 -0.136570 -0.751421 -0.750140 0.194111 -0.038300 -0.740734 -0.250635 0.281732 -0.180298 -0.052379 0.180855 0.218700 -0.416162
only 1.610045 0.708165 0.522749 0.276797 -0.953295 -0.319142 -0.285371 -0.312061 -0.098408 0.280940 -0.228490 -0.141697 -0.975551 -0.956129 -1.099100 0.681287 -0.188120 -0.852875 0.697244 -0.781874 -0.528693 0.610314 0.696002 0.452662 0.429428 -0.424511 0.020864 0.187688 -0.356403 0.250735 -0.771564 0.347102 0.266818 1.276702 0.669242 -0.251952 0.675972 0.034535 0.318670 0.075118 -0.481059 -0.058110 -1.169948 -0.110537 0.665479 0.307989 -0.213845 0.905024 0.556105 0.055882
no 1.609489 0.138213 0.057206 1.038627 -0.330770 -0.703779 -1.385806 0.096450 0.098687 -0.241850 -0.037854 -0.065332 0.403848 -0.549270 0.769679 -0.145695 0.323053 -0.177451 0.205707 -0.073561 1.176734 0.157112 1.463598 0.375671 0.281263 0.421451 0.606996 -0.026954 0.402180 -1.801070 0.663413 0.241409 1.134076 -0.316217 0.365380 -0.601487 0.162655 -0.747313 -0.075085 -0.581995 0.446493 0.820585 -0.561399 0.685487 0.449498 0.158411 0.674168 0.021754 0.215324 0.204145
... -0.476391 -0.709765 -0.502169 0.968075 -0.781052 0.018912 -0.304406 -0.092893 0.245110 0.015040 -0.168111 0.477571 0.088185 -0.031970 0.131065 0.372446 0.184862 -0.618850 0.035398 -1.220076 -0.186771 -1.087456 0.339328 -0.081590 0.740918 0.285170 -0.106436 -0.568322 0.094594 -0.613960 -0.364618 0.588877 -0.932573 0.893360 0.829180 -0.475050 -0.563222 -0.243058 -0.546418 -0.046501 0.369793 0.458675 -0.339474 -1.294796 0.432080 -0.160326 -0.577406 -0.065364 0.127376 0.231432
out -0.420233 0.266369 -0.277625 0.659711 -0.107457 -0.242220 -0.906857 -0.880387 -0.728153 0.003137 -0.012124 0.221365 0.247125 -0.478887 -0.652528 0.125346 -0.131976 0.219736 -0.352071 -0.613130 1.155066 -0.502714 1.441446 0.737221 0.251426 0.128293 -0.229150 0.020604 -0.218674 0.475074 0.334637 0.404248 -0.424650 0.300458 0.626782 -0.506634 -0.633463 0.590361 0.267152 -0.058291 -0.409538 0.855551 -0.837983 0.081429 0.246427 -0.263379 0.630143 0.040838 0.559890 -0.402360
- 0.919075 0.221793 -0.059575 0.017407 -0.115870 0.302786 -0.613089 0.756763 -0.567111 -0.671171 0.437183 0.169717 0.099470 0.116204 0.181242 0.037603 0.166665 -0.040512 0.520054 -0.836761 0.100234 0.043756 0.060879 0.489174 0.994100 0.581155 0.115534 -0.461060 -0.772402 -0.300970 -0.305002 0.393274 -0.096957 0.053803 -0.220708 -0.534874 0.047922 -0.280701 -0.383387 -0.603874 0.168452 1.064927 -0.689910 0.273700 0.464086 0.241493 -0.057357 0.345785 0.450738 -0.344483
which 0.079083 0.022399 -0.136636 0.057050 -0.018358 0.130199 -0.266027 -0.027113 -0.389957 -0.794939 -0.461556 -0.548551 0.202983 -0.388484 -0.003288 0.701858 1.032575 -0.079973 0.603957 -0.427868 0.458905 -0.268238 0.131516 0.447819 0.505314 -0.509676 -0.331967 0.314550 0.275053 -0.174942 0.118784 0.132004 0.004820 0.310768 0.669043 -0.968961 -0.114355 0.220011 -0.275658 -0.237972 -0.498514 0.818096 0.075598 -0.529321 0.364368 -0.028016 0.046781 0.902053 0.083879 -0.016124
i -0.284018 -0.431853 0.124509 -0.799821 0.657048 -0.361346 -0.260636 -0.132923 0.193215 0.112152 -0.012276 0.490411 -0.264560 0.259780 -0.707284 0.706139 0.323757 -0.936381 0.468320 -0.066969 -0.239311 0.565938 1.370698 0.196233 0.639461 0.740377 -0.122130 -0.186017 0.389332 0.205462 0.668882 0.828378 0.707963 0.580815 1.342520 -0.920157 -0.056508 -0.529660 -1.049128 -0.572067 0.741745 0.530684 -0.001972 -1.177348 -0.647181 -0.890300 -0.007747 0.324871 -1.036132 0.157316
time 0.070773 0.018146 1.119511 0.194067 -0.627470 -0.980889 -1.252107 -0.546039 -0.442914 -0.120029 0.289945 0.734294 -0.175050 -0.076421 -0.977559 -1.002705 -0.052351 -0.121261 0.309189 0.068601 -0.704762 -0.343226 0.619779 0.507050 0.124736 -0.938612 0.250052 -0.316070 -0.051688 0.257718 0.020400 -0.028388 -0.516191 0.889057 0.519972 -0.163449 -0.668273 0.394174 -1.135119 0.193662 0.103178 0.217250 0.528843 -0.168772 0.265497 0.265195 0.930305 -0.727295 0.141894 0.627402
will -0.131628 1.266984 -0.006125 0.965206 -0.315975 -0.775844 -0.439982 -0.650833 -0.250604 0.102776 -0.208734 0.151364 -0.290960 0.608603 -0.006385 0.376495 0.039376 -0.591854 0.330680 -0.127042 -0.009022 -0.224359 0.628556 -0.508702 0.415838 -0.175761 0.171121 0.375252 0.637067 -0.134218 0.435075 -0.039411 -0.563604 0.788986 0.674078 -0.255412 0.023331 0.132659 -0.571189 0.981582 -0.374767 0.472612 -0.710720 -0.426090 -0.486836 -0.668707 -0.182558 0.411351 0.052791 -1.651875
go -0.446046 0.620481 0.351371 0.618674 0.051561 -0.735984 -0.109286 -0.933855 0.061355 0.047407 0.117067 0.274692 -0.428913 0.643390 0.471844 -0.207329 0.246699 0.070388 0.328344 -1.215739 0.464157 -0.509509 0.324584 -0.562681 0.251868 -0.001730 -0.030736 -0.621843 -0.131574 -0.290623 0.085247 -0.326047 -0.546025 1.031176 0.209995 -1.184067 -0.315760 0.230822 -0.534045 0.494870 -0.828918 0.216905 -0.666079 -0.339058 -0.644990 -0.812590 0.612580 -0.309305 0.379010 -1.281112
up 0.630246 0.566680 -0.050182 -0.157858 0.287939 -1.035600 -0.736794 -0.105526 -0.479678 -0.237841 0.948373 -0.292616 -0.313664 0.663371 -0.106702 -0.067214 1.239173 -0.491128 0.760447 -0.027170 0.032513 0.323320 0.334597 -0.003225 0.604460 -0.311228 -0.130217 -0.040102 -0.207896 -0.056674 0.198117 0.183872 -0.187942 0.100582 -0.406515 -0.026044 -0.220001 -0.173485 0.466704 0.150267 0.023059 0.259112 -0.526724 -0.315874 0.587778 -0.163963 0.528903 0.316517 0.304016 -0.917513
really 0.655532 0.393341 -0.537548 -0.316326 0.326616 -0.821379 0.373126 -0.696942 0.216293 -0.423378 0.252791 -0.425704 0.390145 0.053819 -0.012872 0.379043 -0.097482 -0.563269 1.097597 -0.758023 0.591065 -0.224650 -0.204937 -0.078209 0.687264 0.204977 -0.521448 -0.252622 0.284101 0.027603 0.097056 0.408150 0.130862 0.187440 0.284187 -0.040641 -0.611515 0.319049 0.182838 -0.846105 0.403664 0.121855 -0.216996 -0.965073 0.758907 0.003354 -0.427000 0.418212 -0.529767 -0.693377
more 0.497381 -0.142776 -0.747845 0.887358 -0.713004 -0.724520 0.086245 0.096056 -0.447644 0.436426 0.333419 0.788489 0.058337 -0.185130 0.220452 1.067041 0.984395 0.656482 0.079733 -0.400077 0.447917 0.055666 -0.210177 -0.027955 0.682462 -0.483326 -0.344855 0.132235 -0.049159 0.042369 1.016005 -0.201123 0.674957 0.193616 0.291580 -0.287431 0.231292 0.319109 -0.475257 -0.590042 0.089525 -0.086593 0.868048 -0.180584 -0.571176 0.360402 1.138841 0.425406 0.482987 -0.010210
-RRB- 0.149752 -0.092380 -0.004845 0.517601 -0.961772 0.601191 -0.630441 1.473121 -0.234073 0.252232 0.053261 -0.364542 0.001692 0.192547 0.142234 0.782227 0.942713 -0.103851 0.920720 -0.512893 0.040597 -0.609653 -0.506484 -0.136231 0.858938 -0.597703 -0.293258 0.048346 -0.072192 -0.958028 0.135583 -0.090406 0.139352 0.353478 0.892914 -0.292195 0.677589 -0.196732 -0.839593 0.454610 -0.351139 -0.069883 0.894908 -0.921003 0.373913 -0.239147 -0.110874 0.680370 0.252997 0.638488
We 0.195032 0.706974 -0.217101 0.017652 -0.327436 0.201023 -0.421469 -1.296829 -0.549851 0.589592 0.786381 0.566871 -0.442733 -0.672885 1.018817 -0.075207 0.016200 0.478095 -0.408777 -0.264225 -0.028293 -0.739027 -0.874954 -0.095507 1.113618 0.081872 -0.399363 0.651161 -0.438868 0.526670 -0.087578 0.368476 -0.292066 0.631760 0.117654 -1.226463 -0.993430 0.089076 -0.565499 -0.259914 -0.429229 0.744628 -0.481682 0.394310 -0.106383 -0.199962 0.678663 0.059400 -0.431458 -0.508048
when -0.360581 -0.134048 0.063462 0.326248 -0.269296 -0.119260 -0.286745 -0.230362 -0.196267 0.709339 0.727343 0.203615 -0.201886 0.185035 -0.693904 0.101408 1.150961 -1.208064 0.353210 0.533271 -0.062060 0.132097 0.476302 0.073592 0.691883 -0.498039 -0.268365 0.221064 0.076748 0.395075 -0.098945 0.490048 -0.670682 0.590756 0.311201 -0.514534 -0.567741 -0.084045 -0.243733 0.036262 0.354256 0.738308 0.215695 -0.159287 -0.453201 -0.049718 0.379008 0.784590 -0.133399 0.334385
been 0.391834 0.973779 0.150594 -0.212025 -0.199232 -0.211391 -0.285807 0.293101 -0.505879 0.409555 0.542290 -0.183637 -0.164818 -0.039018 0.493773 -1.180370 -0.107713 0.020647 1.006330 -0.435829 0.284550 -0.058052 -0.407169 0.019477 0.428552 -0.422985 0.729304 0.611591 -0.292254 0.354812 0.933579 -0.256427 0.353175 1.203145 0.709186 -0.787900 -0.955963 -0.156845 -0.617300 -1.130351 -0.593135 0.564386 -0.052352 0.538644 -0.381211 0.420985 1.370212 -0.963941 -0.938737 -0.136954
-LRB- -0.180862 0.211495 -0.133471 -0.013611 -0.606701 0.391518 -0.287276 1.358969 -0.491575 0.132084 -0.288505 -0.307355 -0.040025 -0.103762 0.162423 1.318044 0.975536 -0.519566 0.821604 -0.421699 0.075488 -0.046003 -0.655493 -0.273665 0.931812 -0.814396 -0.529732 0.167231 -0.349328 -1.009342 -0.271379 -0.093622 0.407320 0.100124 0.367499 -0.478535 0.526026 -0.196037 -0.631612 0.531291 -0.727227 0.330244 0.369148 -0.309549 -0.015697 -0.274687 0.032363 0.991460 0.316540 0.411826
use 0.122457 0.481277 -0.264760 -0.428731 -0.418030 -1.540799 -0.587227 -0.267465 0.189179 -0.663736 0.214038 0.715309 0.346988 0.391202 -1.638101 0.069617 -0.049821 0.289029 0.719923 0.265058 0.491746 0.284631 1.407988 0.019878 0.478383 0.113561 -0.095464 -0.336235 -0.315175 0.837848 0.428548 -0.211563 0.274870 0.274725 0.679428 0.489978 -0.241900 0.077814 0.405817 0.103545 0.032456 0.135648 0.199383 0.313398 0.017769 -0.253002 0.415707 0.029168 -0.916355 -0.751348
your -0.323513 -0.119726 0.030796 0.869549 -0.833982 -0.165794 -1.243680 -0.886729 -0.381616 -0.445096 0.268668 0.834912 -0.009827 -0.023540 -0.776072 -0.263853 0.341737 0.390116 -0.477739 0.151919 -0.082280 -0.720871 0.807755 -0.503049 0.771553 -0.292595 -1.276416 -0.652390 -0.466361 0.212961 0.492298 -0.204201 -0.595177 0.080185 -0.058791 -0.036473 -0.016835 1.294996 -0.562782 1.024566 0.316751 0.539782 0.349683 -0.849132 0.179786 -0.325972 -0.622000 0.949376 0.530626 -0.410464
back 0.213894 0.502846 0.552461 0.646461 -0.057555 -0.561619 -0.531531 -1.451338 -0.113352 0.400961 0.730740 -0.669295 -1.124050 1.565431 0.558724 -0.169513 0.900144 -0.172468 0.326960 -0.673631 0.523365 -0.358876 -0.300235 -0.057273 0.097316 -0.099788 -0.157171 0.474702 -0.212162 -0.294705 -0.082289 0.548932 -1.070214 1.091480 0.762122 -1.285895 0.013615 -0.323038 -0.082604 0.808159 -1.003720 -0.603304 -0.316186 -0.635441 0.140744 -0.605842 1.223278 0.100584 0.800339 -0.797995
by -0.234770 0.660533 0.107142 0.670110 -0.199062 0.389751 0.135711 0.971591 -1.126408 1.240813 0.466030 0.087864 0.108201 -0.415583 0.124859 -0.095037 0.063876 0.212040 0.460106 0.084386 0.348528 -0.835674 0.253110 0.550523 0.867254 -0.674761 0.280576 0.158361 0.088706 -0.165346 0.011644 0.291644 -0.354052 0.536212 0.773393 -0.137680 0.013881 -0.014338 0.105687 -0.613923 0.385091 0.240614 -0.163927 0.275123 -0.379987 -0.525872 0.698821 0.166404 0.035429 -0.097122
it. 0.399881 1.430370 0.059354 0.044676 -0.474308 -0.678821 0.048819 -0.385468 -0.298102 -0.086252 0.508049 -0.060631 0.034174 0.319777 -0.936677 -0.007635 -0.303236 0.330228 0.118234 0.501008 0.233164 -0.478100 0.355873 -0.447337 0.518536 -0.266794 -0.327331 -0.143291 -1.000521 0.751247 0.741810 0.719726 -0.115123 0.788009 0.332023 -0.260334 0.220857 -0.243648 -0.480973 -0.790470 -0.133395 0.206484 -0.855235 0.095661 -0.133817 -1.155986 -0.014617 -0.555977 -1.369440 -1.121407
than 0.830630 0.122647 -0.689004 0.801661 0.146728 -1.459499 -0.425085 0.567202 -0.673707 0.409718 0.893673 0.821246 0.349869 -0.264145 0.638190 1.317785 1.253100 0.325983 -0.265835 -0.508745 0.303063 -0.492986 -0.182219 0.069352 0.651088 -0.954656 -0.586548 0.628739 0.046673 -0.011080 1.261861 0.007169 1.219570 -1.185817 0.154896 -0.067102 0.568989 -0.308399 -0.200642 0.015814 0.261552 -0.039527 0.454411 -0.191921 -0.059878 0.649266 1.005636 0.848350 0.446248 0.597206
what 0.536417 0.337681 -0.073377 0.662106 -0.028107 -0.966190 0.174046 -0.667396 0.531834 -0.212462 -0.101734 0.528751 -0.121535 -0.136255 -0.626832 0.628020 0.901143 0.385052 -0.051838 -0.250205 0.254486 -0.639711 0.910831 0.005874 0.657301 -0.250144 -0.663345 0.091158 -0.661094 0.507728 0.194857 0.327827 0.690221 0.180978 -0.544803 -0.987014 -0.294730 0.048638 -0.005433 -0.961679 -0.424256 0.420098 -0.201920 -0.108892 -0.424824 0.226950 0.711967 0.025327 0.244072 -0.295745
love -0.301690 0.818425 -0.170003 -1.012580 0.297462 -0.419020 -0.569711 -0.268376 -0.287624 -0.327289 0.305147 -0.607959 0.413842 0.814440 0.070495 0.058374 -0.631604 -0.151052 0.225250 -0.842984 0.384381 -0.306458 0.477669 -0.581628 0.372607 0.911044 -0.790826 -1.074240 -0.472918 -0.163856 0.802169 0.415854 -0.257966 -0.134178 1.094504 -0.056551 0.349423 -0.592511 -0.510417 -1.273688 0.175848 -0.174520 -0.626004 -0.982863 -0.565782 -1.224101 -0.771572 0.484208 -1.046005 -0.127243
-- -1.222693 0.245907 -0.033499 -0.356316 0.143420 -0.020437 0.077930 -0.135636 0.045967 0.198970 -0.618531 0.468346 -0.056691 -1.040555 0.553026 -0.343042 -0.909494 0.294344 0.142333 -0.690252 -0.137782 -0.980209 0.964955 0.040005 1.044861 0.019647 -0.217286 -0.179323 -0.302950 -0.264627 -0.609820 0.112745 0.362258 0.330815 0.675944 -0.469245 -0.437301 -0.439611 -0.090421 -1.221989 -0.690059 0.341400 -0.322263 -0.475772 -0.306521 -0.035226 -0.288068 -0.159456 -0.521494 0.546556
am -0.457482 0.988619 -0.693082 -0.144942 0.385108 -0.465700 -0.125559 0.269609 0.554180 0.837252 0.233357 -0.157777 0.639649 1.122874 -0.303086 0.136995 -0.167611 -0.344031 1.199813 0.414745 0.425175 0.034780 0.245937 0.493775 0.582049 -0.829145 -0.518837 0.683310 0.629154 -0.105028 0.296328 0.564387 0.318204 0.623290 1.682153 -0.076746 -0.045907 -0.429125 0.252887 -0.366159 -0.139931 -0.816252 0.666278 -0.352954 0.326777 -0.252824 0.739153 0.065509 -1.157678 -0.050078
best -0.055581 0.147504 0.151133 0.379958 -0.069680 0.229463 -0.404646 0.730579 -1.133978 0.986085 0.157502 1.445035 -0.716695 -0.749528 -0.379807 -0.135400 -1.019274 -0.667704 0.211313 -0.993975 -0.138246 0.543244 -0.003953 0.069072 0.184070 -0.243399 -0.082678 0.034642 -0.147927 -0.178973 -0.061091 -0.225429 0.582464 0.247639 0.547158 -0.362288 0.265824 0.250652 -0.655513 -0.315006 -0.120669 -0.183117 -0.856034 -0.019581 -0.481400 0.623336 -0.197656 0.774150 0.411494 0.466845
their -0.594971 -0.456813 0.045906 -0.093312 0.174422 -0.337917 -1.014490 0.572341 0.016872 -0.063287 0.497280 0.853088 0.431304 -0.290167 -0.645430 0.695404 -0.287943 0.502124 -0.078471 -0.202497 -0.163439 -0.114508 0.243284 0.084316 0.331666 -0.167551 -0.599673 -1.170131 -0.031179 -0.354068 0.119003 0.218925 -0.193685 0.097690 0.611151 -0.205149 0.186972 -0.530031 -0.712021 0.132338 0.529566 -0.336934 0.105448 -0.502985 0.377161 -0.850377 -0.406924 -0.552481 -0.352829 0.316996
even 0.317462 0.480485 0.102984 -0.176103 -0.932874 0.531477 0.070192 0.489160 -0.571394 0.683193 0.822227 0.023862 0.305392 0.188997 0.055713 0.572094 -0.138961 -0.231452 0.659194 -0.282174 0.746021 0.346712 -0.390205 -0.612501 1.034144 0.209733 -0.651489 -0.922754 -1.258749 0.178524 -0.488804 0.420592 -0.130660 0.170628 -0.154885 -0.046155 -0.083469 0.301260 0.478734 0.071392 0.073423 1.103333 0.261384 0.156040 -0.471981 -0.516235 0.772756 1.114805 0.268585 -0.389006
never 0.450410 0.808364 0.348058 -0.121683 -0.272204 -1.196946 0.485343 -1.335186 0.185047 0.671153 -0.086281 -0.160926 -0.522146 -0.514090 0.883785 -0.057018 0.096008 -1.016702 0.066238 -0.206899 -0.498666 0.105241 0.027971 0.125316 0.434292 0.500065 0.699157 0.414135 1.134245 -0.700569 -0.365376 -0.034884 0.167819 0.669901 0.818350 -0.879488 -0.336611 -0.560159 -0.974702 0.455107 0.235511 -0.005316 -0.918225 0.903225 -1.047907 -1.030158 0.646394 0.616413 -0.743259 -0.917162
here -1.075165 0.436972 0.045530 -0.895605 0.324235 -0.793942 -0.871515 -1.160502 0.504842 -0.334482 -0.326872 0.060838 -0.145818 0.410367 0.602465 -0.129857 0.384813 0.449598 0.380551 -1.551910 -1.089252 -0.050518 0.129500 0.254439 0.402894 -0.178400 -0.958635 0.098068 -0.722255 0.206923 -0.542253 -0.497076 -0.301752 0.299278 0.695750 -0.882748 -0.615800 -0.116221 -0.693057 -0.333597 -1.182319 -0.058547 -0.196865 -0.173537 0.310326 0.400084 0.687085 -0.460959 0.011177 -0.368657
because 0.079031 0.392456 -0.011115 -0.362956 -0.150308 -0.742445 0.171935 0.156647 -0.673968 -0.205081 0.223082 0.015933 -0.085279 -0.189122 -1.351103 0.576836 0.080343 -0.606124 0.428275 -0.350141 0.360829 -0.290687 0.513410 0.232721 0.835996 0.276765 -0.301460 0.153291 -0.821225 0.444113 -0.373621 0.248458 -0.110789 -0.082560 -0.272154 -0.080829 0.152011 -0.447946 -0.360362 0.012576 -0.424103 0.406550 -0.560547 0.247988 -0.014698 -0.537455 0.222226 0.396640 0.079881 -0.023655
too 0.313888 -0.778031 0.055117 0.182220 -0.978604 0.381230 0.052455 1.517039 -0.044219 0.172626 -0.352813 0.722068 -0.122069 0.950773 0.336064 0.611571 0.103279 0.601215 1.399840 -0.265919 0.077650 0.127152 -0.012817 -0.116954 0.007160 -0.964755 0.290819 -0.026026 -0.243669 0.130959 0.037066 0.448024 0.185716 0.841600 -0.256575 0.142641 -0.318674 0.634618 -0.364567 -0.067796 0.178671 0.323322 0.674402 -0.639649 0.887585 0.464924 0.409486 -0.412374 -0.157422 0.078462
any 0.820818 1.568702 0.292973 0.099316 -0.640061 -0.868503 -0.157722 0.350841 -1.226611 -0.157656 0.092598 0.323153 -0.162956 -0.257375 -0.337778 -0.460276 -0.690245 -0.821236 0.365428 0.345149 0.569529 -0.925616 0.515812 -0.732396 1.048565 0.073560 -0.087132 0.035607 0.072598 -1.055990 0.853594 -0.910883 2.134806 -0.304420 -0.125524 0.380036 0.619119 0.342102 -1.156628 0.905861 -0.045355 -0.126096 0.224503 0.096277 -0.218559 -0.741739 0.008482 0.554817 -0.946071 -0.443352
battery -0.145948 0.102743 0.348738 -0.011288 -0.808072 -1.122928 -0.533486 -0.286228 -0.663780 0.238027 -0.609622 0.002626 -0.452200 -0.187604 0.008657 0.448473 1.050957 -0.652334 0.626502 0.290384 -0.977635 1.691282 0.481743 0.023594 -0.429897 -1.370701 0.326899 0.345215 1.039192 0.422748 0.019060 -0.084631 -0.163970 0.544177 -0.207250 0.919280 -0.420967 1.190173 -0.446836 -0.422611 0.004506 0.067810 0.297510 -0.616769 -0.058857 0.785525 0.209877 0.643670 0.570785 -0.007493
our -0.630814 -0.329118 0.472673 -0.383090 -0.315874 1.038714 -0.412184 -0.013124 -1.564681 0.030803 0.233455 0.508372 -0.719914 -0.321914 -0.574161 0.171768 0.625720 0.692143 -0.284656 0.149508 -0.024647 -0.984295 -0.052606 0.735223 0.676170 -0.391952 -0.417268 0.501045 -0.703734 0.057961 -0.836826 0.298278 0.096742 -0.042489 -0.623006 -1.302896 -0.438188 0.287834 -0.614688 0.462693 -0.093945 0.560180 0.419178 0.476521 0.865734 -0.529067 0.969425 0.505567 0.535247 0.960465
screen 0.587231 0.189036 0.075683 -0.344702 -0.331591 -0.428657 -0.072559 0.798592 -0.731200 -0.405315 0.089998 0.214085 0.025499 -0.522506 -0.045107 -0.328023 1.019855 -0.478314 0.673468 0.472349 -0.011950 0.569126 0.074480 -0.282703 0.206671 -0.717151 -0.100927 0.289073 -0.371069 0.019346 0.074751 -0.318874 0.116810 -0.288008 0.124652 -0.026165 0.110025 0.154054 0.456628 -0.635815 0.018807 0.226432 -0.756492 0.446016 -0.316500 0.619547 -0.541029 1.113349 -0.387878 -0.684837
My -0.620074 -0.145352 -0.239765 -1.427282 -0.060617 0.033877 -0.184566 -0.644643 0.159668 0.351768 -0.165356 0.309278 -0.534931 -0.469129 -0.624008 -0.223886 -0.550073 -0.729825 0.847396 -0.119820 0.475731 0.347245 0.482841 0.782267 0.141094 0.033392 0.016753 0.491767 0.166347 -1.014552 -1.014325 -0.548457 0.323532 0.415451 0.764805 -0.613297 -0.219707 0.200396 0.546515 -0.254705 -0.645893 -0.749163 -0.523167 0.655035 -0.101856 0.526433 -0.443731 0.807436 -0.092565 1.287591
its -0.173437 0.940993 -0.522510 0.065636 0.110563 -0.056125 0.009238 0.679302 -0.726820 0.105902 0.545492 -0.024393 0.384682 0.401832 -0.791323 0.102479 0.354970 -0.717916 0.713587 -0.358160 0.224582 0.048932 0.031601 -0.098345 0.743523 -0.147960 -0.006837 0.200956 -0.306743 0.741995 0.181398 0.113802 -0.205655 0.165583 -0.088625 0.831190 -0.493028 0.113243 0.328315 -0.223223 -0.317747 0.649747 -0.682923 -0.445838 0.476711 0.124358 0.027318 -0.234964 -0.353798 -0.796754
after 0.608875 0.011438 0.005155 0.394587 -0.809386 0.173577 -0.572308 0.491278 -0.264451 0.864388 0.966096 0.024340 -1.025266 -0.787781 -0.824755 0.365246 0.625543 -0.480902 -0.069942 0.007324 -0.554234 0.427031 0.050388 0.144563 0.452779 -0.088419 0.465565 0.560615 -0.898934 0.492722 -0.514533 0.366948 -0.663476 0.451663 -0.144649 0.477887 0.353080 -0.305442 0.311564 -0.154710 -0.140450 0.302400 -0.924033 0.612500 -0.158217 -0.036645 0.050909 0.091646 0.550462 0.543231
little 0.926781 -0.368434 -0.182116 0.958780 -0.208509 0.220238 -0.137531 0.179678 -0.552691 0.115224 0.474219 -0.215972 0.345109 -0.473775 0.335211 -0.047602 0.533644 0.813754 0.257802 0.020094 0.339461 -0.303771 0.473941 1.242746 0.556723 -0.110115 0.270707 -0.269115 0.411913 1.060606 0.802804 0.266054 0.038780 0.439853 0.777799 -0.045148 -0.251078 0.779524 0.291274 -1.327124 0.660802 0.117433 0.843756 -0.298950 -0.049228 0.810343 0.842377 0.783670 0.526803 -0.006549
recommend -0.018350 -0.885445 0.399487 -0.386202 0.708509 -1.001650 0.810513 0.758437 0.403395 -0.646145 0.711137 0.536077 -0.221452 0.800208 0.092852 1.272985 -0.422620 0.503175 0.290951 -1.546206 0.497374 -0.476422 0.169458 -0.554929 -0.400734 0.314523 -0.545780 -0.228244 -0.445923 1.005228 0.891474 0.288638 1.405351 0.356652 1.953691 -1.294758 0.884153 0.090029 -0.737246 1.134241 -0.549476 -0.161914 -0.934862 -0.158160 -0.359608 -0.685560 -0.752666 0.077874 -0.852699 -1.376096
much -0.333935 -0.412795 0.062980 -0.273072 -1.211489 -0.543327 -0.024277 0.380115 -0.402785 0.239658 0.089551 1.431160 0.126519 0.898943 -0.162111 0.121620 -0.476239 0.307663 0.852298 -0.263658 0.132293 0.793925 0.293624 -0.464445 -0.015294 -0.829458 0.081870 -0.978281 -0.697990 0.257030 0.198242 -0.064219 0.220537 0.516596 -0.285254 0.414691 -0.081766 0.564817 -0.237076 -0.553203 0.599224 0.106175 0.709976 -0.104128 -0.328298 0.243680 1.277007 -0.296864 -0.055335 0.318743
nice 0.663961 0.117803 -0.664674 0.095360 -0.324074 -0.044903 -0.091830 0.572623 0.136234 -1.137860 -0.186330 -0.252078 0.568258 -0.310813 -0.254140 -0.156351 -0.410189 -0.255190 0.902138 -1.024606 0.090792 -0.044227 -0.343902 0.319861 0.982607 0.508922 0.344877 -0.476769 0.215573 -0.049233 -0.496674 -0.424996 -0.006410 0.204197 0.311420 -0.095155 -0.942358 -0.233979 0.291541 0.240306 0.302458 1.048280 0.304388 0.836110 1.179925 0.906977 0.660241 0.327399 -0.266340 -0.380329
did -0.197219 0.275648 0.496876 -0.621167 -0.984720 0.191725 -0.059867 -0.340994 -0.446783 0.509582 -0.109179 0.049217 -0.368833 0.330343 0.221822 0.696575 -0.056925 0.109151 0.466401 0.421656 0.114854 -0.171326 0.602662 -0.674135 0.559981 -0.582871 -0.717683 -0.354851 -0.434212 0.254410 -0.563726 1.041500 0.452275 0.396148 -0.787266 -0.993211 -0.642069 0.262168 0.014370 -0.087629 0.097144 0.835746 0.152429 -0.819812 -0.287659 -1.164062 0.249897 0.631741 -0.621439 -0.043941
price -0.079854 0.025533 -0.287783 0.215344 -0.198930 -0.257925 -0.425373 0.540966 -0.442877 -0.416894 0.165576 -0.049448 0.293627 0.133244 -0.093208 0.725797 0.058132 -0.335253 0.022572 -1.261397 -1.057460 -0.422839 -0.086367 -0.176701 0.577719 -0.378534 -0.812343 0.460904 -0.733977 0.968457 -0.071524 0.683446 0.033586 -0.687028 0.716689 -0.183392 -0.158397 0.361421 -0.162071 0.428989 0.168491 0.707580 -0.858293 -0.422378 0.358645 0.090971 -0.175782 0.705865 -0.219401 -0.743077
also -0.451957 -0.088982 -0.569018 -0.640113 0.649716 0.120572 0.210693 -0.650331 0.131850 -0.009217 0.661124 -0.304913 0.233099 0.559511 1.305837 0.122531 0.536875 -0.188053 0.997299 -0.987990 0.492056 -0.028961 -0.302175 0.049040 0.256962 0.056718 -0.646746 -0.099984 0.421390 -0.108874 -0.085362 0.388233 0.107958 0.569028 0.751998 -0.901950 -1.439221 0.878014 0.932591 -0.511277 -0.480177 0.563405 -0.302641 -0.743006 0.707422 0.491540 0.441722 0.506596 -0.029166 -0.502517
some 0.136004 0.052139 -0.298620 -0.348033 -0.256297 -1.108113 -0.254222 -0.206208 -0.319240 -0.172877 0.141735 1.008961 0.253293 -0.905605 -0.129371 0.533508 -0.414661 0.286825 -0.161541 -0.024553 0.214458 -0.439310 0.485567 0.107312 0.437047 0.085691 0.331504 0.114523 0.993360 -0.362865 0.254181 -0.251375 0.621085 0.128683 0.523315 0.311572 -0.690370 -0.407371 0.081990 0.946540 0.502707 0.242453 -0.041211 0.457387 0.385458 -0.259893 0.326496 -0.133942 -0.333547 -0.310105
well -0.007895 -0.282809 -0.165511 0.805896 -0.178625 -0.321082 -0.301340 0.414074 -0.879768 -0.569137 -0.006333 -0.321524 0.540403 1.182337 -0.366706 -0.592299 0.743137 -0.675374 0.756207 -0.126054 0.092699 0.128841 0.222828 0.341092 0.505914 -0.390530 0.413932 0.078130 -0.484682 -0.431728 -0.102090 1.019739 -0.581115 0.504905 -0.424881 0.430881 -0.406017 -0.916498 -0.077642 -0.677050 -0.101462 0.392283 -0.377040 -1.086334 1.136310 0.464730 0.183094 -1.082131 0.261170 -0.389226
worth 0.770704 0.098625 0.519779 0.660926 -0.898426 -0.535451 -0.508982 0.080421 -0.427946 -1.212571 0.219753 -0.746074 0.362798 0.859204 -0.308045 -0.304338 0.250143 -0.162423 0.804152 -0.748850 0.409674 -0.680995 0.220014 -0.713493 -0.173579 -0.816353 0.314121 -0.426786 -1.373922 0.413403 0.397537 0.656383 -0.713785 0.312961 -0.333564 0.032677 -0.317358 0.023725 -0.205813 0.032296 -0.362701 0.657633 -0.440368 -0.556381 1.283159 0.615747 0.305755 -1.181759 -0.147929 -0.262692
ever 0.200430 0.400257 0.461058 0.077326 -1.143354 0.304177 -0.018413 -1.120712 -0.685706 1.042197 0.095778 1.523763 -1.060139 0.743306 -0.668166 -0.791177 -1.128719 -0.777456 0.410837 -0.411554 -0.614223 1.041166 -0.600239 -0.406841 -0.225968 0.229106 0.702067 0.405014 0.297346 0.091026 -0.024007 -0.246149 0.502481 1.140212 0.401071 -0.359015 -0.105342 0.643873 -0.908954 -0.046243 0.164698 -0.428689 -0.095111 -0.062255 -1.355010 0.891356 0.496317 1.363499 -0.098646 -0.272933
other 0.818509 0.221227 0.217528 0.673842 -0.075657 0.155156 -1.040283 0.750425 0.504853 -0.031497 0.459400 0.260763 -0.078306 -0.207664 -0.332260 -0.088491 0.029687 -0.465454 0.137439 -0.659544 0.286652 -0.678344 -0.311855 -0.440792 0.682889 0.036139 -0.465182 0.194240 -0.737319 -0.443223 0.320251 -0.524106 1.370434 -0.222302 0.458997 -0.373128 0.302422 -0.330555 -0.862473 0.730316 -0.633299 0.051552 0.356593 0.280516 0.540278 0.496758 0.201894 -0.186635 -0.304426 1.103886
got 0.242528 -0.319549 0.133303 -0.197986 -0.396498 0.480413 0.230637 -0.613770 -0.849133 0.227968 0.062653 -0.147512 -0.371131 -0.415372 -0.157206 0.224827 0.563682 0.288405 0.162824 0.591734 0.198163 -0.174881 0.164815 0.758203 0.522468 -0.030094 0.424099 0.134977 -0.005663 0.398538 0.193576 1.111570 -0.877004 0.979395 0.411721 -0.967464 -0.086240 -0.078858 -0.401393 -1.416517 0.702170 0.264787 -0.276024 -0.331440 -0.819289 -0.650440 -0.170631 0.605244 -0.352011 0.022097
always -0.480224 0.343717 0.136186 -0.149818 -0.048842 0.675492 -0.263121 0.133909 0.153556 -0.083419 -0.227109 0.788832 -0.102145 -0.068420 0.546283 -0.568589 0.223659 0.073801 0.919559 -0.050373 -0.134662 0.107803 0.313056 0.069351 0.245511 0.081423 0.785730 -0.452292 1.006623 -0.448412 0.112246 -0.835579 -0.112510 1.513707 0.063231 -0.516275 -0.942046 0.553800 -0.663136 -0.681576 0.106153 0.970495 0.016784 -0.038368 -0.279434 -0.064516 -0.054034 -0.628340 -0.194335 -0.923282
Great -0.705415 -0.044643 -0.489043 -0.522705 -0.282437 -0.922948 -0.205605 -0.294371 -0.000919 -0.512910 -0.183867 0.539246 0.251120 -0.017369 0.406420 -0.156654 -0.326216 0.115445 -0.241883 -0.851609 -0.785040 -0.238585 -0.054895 -0.821740 -0.172884 0.003910 -0.018412 -0.103363 -0.160300 -0.500135 -0.646391 -0.474072 0.341077 -0.907740 -0.450309 -0.205199 0.138629 -0.196483 -0.218968 -0.325282 0.032367 -0.383817 -0.350536 0.552365 -0.208198 0.540979 -0.597058 -0.083403 -0.751014 -0.044718
thing 1.093860 -0.342115 -0.073241 0.208664 -0.012932 -0.603844 0.260055 0.096037 0.287388 0.209260 -0.366902 0.586221 -0.676772 -1.154565 -1.333622 0.805228 -0.776959 -1.271789 0.534971 -1.082165 0.455008 0.601559 0.857221 0.408078 -0.292615 -0.002656 -0.134035 -0.589345 0.020599 -0.569094 -0.656324 0.293256 0.788319 0.702638 0.116465 0.187183 -0.056190 -0.001780 0.681087 -0.099215 0.211699 -0.494886 -1.034206 -0.573279 1.000217 0.202667 -0.509050 0.592327 0.967641 0.656413
If 0.203890 0.362462 0.107459 1.121777 0.626855 -0.111749 0.098150 -0.997039 0.787755 -0.017052 0.421216 1.347664 -0.381356 -0.196565 -0.713797 -0.475478 0.410656 -0.017522 -0.139326 0.454790 -0.672163 -0.688880 0.473355 0.280543 1.326636 -0.005258 -0.746177 0.019565 -0.026657 0.842820 0.042634 -0.210663 0.504241 0.829162 -0.199890 -0.376775 -0.042741 0.298510 -0.156866 -0.097459 -0.441868 0.646725 0.217942 -0.793229 -0.460622 0.855241 -0.955833 0.305863 0.618816 -0.806210
does 0.007175 1.072443 0.176849 0.263775 -0.195989 -1.289488 0.005926 -0.052536 -0.480321 -0.274869 0.216051 -0.065747 0.257064 1.006834 0.438190 -0.550608 -0.104396 -0.240237 0.880971 -0.622955 0.250552 0.344563 0.756262 -0.812671 0.264642 -0.356333 -0.228146 -0.880237 -0.473478 0.488773 0.705691 -0.212137 0.195748 -0.185959 -0.248517 0.490011 -0.032635 0.637973 0.101885 -0.777256 -0.140719 0.610010 -0.006001 -0.510018 -0.760371 0.366475 0.494738 0.665610 -0.025062 -1.211018
easy -0.261230 0.035992 -0.254701 -1.091915 0.045586 -0.541764 0.015769 -0.224876 -0.097704 -0.955144 1.162301 0.599447 0.199818 1.333116 0.160877 -1.266342 0.199464 1.204676 1.590432 -0.356483 0.262999 -0.285952 0.451757 -0.042402 -0.009245 0.087031 0.164105 -0.711289 -0.325126 -0.092326 -0.167769 -0.680371 0.298350 0.314877 -0.509653 -0.048565 -1.265098 1.269061 1.534880 -0.650255 0.171242 -0.062409 0.060512 0.388683 1.175873 0.490265 0.822874 -0.448734 -0.398390 -0.935046
They 0.526091 0.879616 -0.297882 -0.852382 -0.005216 0.350262 -0.101455 -1.163238 0.436357 0.637544 0.290515 -0.291599 -0.004924 -0.462758 0.855520 -0.111119 0.247352 -0.646329 0.393711 0.393584 0.041361 0.973773 -0.562618 -0.210453 0.729182 0.750250 -0.614516 -0.193893 -0.066887 -0.282855 -0.369182 0.170303 0.870981 1.030496 -0.471088 -0.025501 -1.258431 0.274759 0.545791 -0.191939 -0.317393 1.008751 0.368667 -0.174649 0.516071 -0.130179 0.520665 -0.182945 0.113798 -0.785199
could 0.181210 0.368273 -0.126628 0.136189 -0.747188 -0.174724 -0.028850 -1.066847 0.526714 0.679559 -0.250004 0.711743 -0.266833 0.399368 -0.303191 0.553223 -0.490947 0.108519 0.287244 -0.011171 0.162244 0.582461 0.339718 -0.589971 -0.008456 -0.030518 -0.475382 -0.094581 -0.170125 0.200920 0.154694 0.498090 0.642662 0.687195 0.144830 -0.889457 -0.376250 0.240020 -0.015371 -0.371251 0.196445 0.150408 0.438480 -0.009698 -0.713182 -0.217579 1.004870 0.614574 -0.396600 0.004142
don't 1.040920 1.082470 0.053201 0.015931 -0.268414 -1.086017 -0.224723 -0.888157 0.809973 -0.259161 0.363688 0.249600 -0.013980 -0.371472 -0.325035 0.234275 -0.505752 -0.279647 0.131794 -0.066448 -0.061058 0.456964 0.291544 -0.838320 0.649576 0.361222 -0.776555 -1.121516 -0.273328 0.262466 0.575517 -0.193463 -0.033370 0.452384 -0.097764 0.411720 0.792907 0.469830 0.003417 -0.530382 -0.012276 0.161112 0.000071 -0.588911 -1.012968 -0.282592 -1.049808 0.647988 -0.422555 -0.770975
make 0.003764 0.485057 0.514054 0.333645 0.431144 -1.248822 0.067443 -0.744088 -0.218293 -0.099895 0.486505 0.326278 -0.353855 0.388401 0.009264 -0.276318 0.438580 -0.141027 0.101099 0.245306 0.061656 -0.708513 0.606546 -0.370089 0.575857 -0.295572 -0.662271 -0.607792 0.616942 -0.105234 0.248690 0.009273 0.080381 0.566647 -0.481062 -0.588163 -0.428536 0.370801 -0.191160 0.242343 0.028400 -0.001201 -0.160689 -1.101571 -0.022836 -0.782311 -0.361922 0.713213 0.287133 -1.049318
over 0.424751 0.091274 -0.537503 0.581937 0.466706 -0.742710 -0.089308 0.143009 -0.687507 0.083573 0.466229 -0.593537 0.068346 -1.133796 -0.743132 -0.251718 0.800106 0.724609 -0.612934 0.102577 0.084558 -0.957172 -0.150530 0.989470 0.972848 0.053666 0.165162 0.474173 -0.404346 0.362900 0.653712 0.146088 -0.052725 0.087464 0.199503 -0.361057 -0.295544 -0.802015 -0.235786 -1.031248 0.023341 -0.461750 -0.149734 0.421410 0.360039 0.169904 0.740681 -0.491181 -0.334471 -0.076779
want -0.086234 0.211778 0.661131 -0.124933 0.130447 -0.568716 0.074508 -0.506407 0.518327 -0.157860 0.152735 0.821173 -0.141469 0.045430 -0.616216 0.141696 0.130516 0.279542 0.454126 0.579054 -0.024243 -0.291346 1.423433 0.141971 1.101298 0.493354 -0.398296 -1.179128 0.052431 0.408052 -0.292287 -0.376818 0.435977 0.821998 0.194508 -0.239636 0.093927 0.118970 -0.286902 0.316814 -0.219361 0.724573 0.632023 -0.330891 -0.813795 -0.605386 -0.158902 0.595773 0.273916 -0.899001
first -0.622083 0.022071 0.501707 -0.256439 -0.001177 0.108542 -0.036510 -0.621387 -0.864315 0.074546 -0.668435 0.783419 -0.506614 -0.319673 -1.237752 -0.753489 -1.119459 -0.711981 0.097407 0.198107 -0.478479 0.216466 0.619112 1.004269 0.266779 -0.502697 -0.066894 0.337588 -0.072121 0.422956 -0.693108 0.701532 -0.651911 1.125691 0.994009 -0.273924 0.056013 -0.288787 -0.788088 -0.944302 0.187932 -0.238814 -0.382204 -0.105691 -0.552328 0.283314 -0.442641 0.013584 0.469902 0.648767
've 0.331181 0.541579 0.460832 0.140460 -0.044529 0.195841 -0.223855 -0.209093 0.078348 0.932380 -0.040434 0.713394 -0.778163 -0.472020 0.237001 0.041509 -0.721595 -0.175934 0.349277 -0.662001 -0.665407 0.468821 -1.137843 -0.012921 0.044744 -0.661956 0.379405 1.159523 0.274675 0.682060 0.512718 -0.051217 0.867590 1.099462 1.384197 -1.411427 -0.565011 -0.170745 -1.375497 -0.468043 -0.555395 0.011648 -0.109277 0.226980 -0.725002 0.686752 1.038100 -0.076108 -0.865676 0.483104
I'm -0.092953 0.615077 -0.196102 0.627692 -0.198204 0.887706 -0.113540 0.003619 0.011613 0.474978 -0.069634 -0.032461 0.341622 1.145335 -0.229115 -0.130936 0.869034 -0.216340 0.549938 0.242061 0.448365 -0.282338 1.014676 0.258947 -0.360200 -0.114155 0.234042 0.725260 0.150741 0.653975 1.107781 0.304254 0.418475 0.804778 0.943459 0.430871 -0.177891 0.509426 0.594459 -0.295069 0.131989 0.201614 -0.093625 -0.630038 0.586094 0.321698 -0.067125 -0.457563 -0.651673 -0.491456
delicious -0.396913 -1.021797 -0.269796 -0.493998 -0.156035 0.169153 -0.822552 0.769478 0.657167 -0.674215 -0.274902 0.466935 0.399962 -0.671624 0.106261 0.574125 0.270496 0.380771 0.386138 -0.639415 -0.414082 -0.073614 0.329013 0.300755 0.330717 0.216038 -0.226932 -0.650242 0.287859 -0.441951 -0.150246 -0.368296 0.335901 -0.085834 0.289003 -0.528920 -0.740522 0.404878 -0.365453 -0.230756 0.235453 0.764817 0.266030 -0.317986 0.907709 0.339361 -0.289763 -0.105148 -0.464485 0.791438
pizza -0.355510 -0.616886 0.493125 -0.521146 -0.090169 0.178203 -0.498299 1.114904 -0.032936 -0.576851 -0.687189 0.353516 -0.068628 -0.797273 -0.284291 0.029733 -0.910438 -0.251751 0.347760 -1.439446 -0.902341 0.142309 -0.501601 -0.154735 0.286991 0.156456 -0.395718 -1.059033 -0.557375 -0.587781 -0.723526 -0.644010 0.409851 -0.222646 0.149497 -0.435945 -0.211241 -0.199246 -0.981244 0.160693 0.127265 0.143890 0.112019 0.216221 0.468250 0.258139 -0.123129 0.099051 0.033856 0.881035
it's 0.431261 0.377118 -0.298187 -0.191457 0.146295 -0.931350 0.075577 0.841623 0.254030 -0.764291 0.135507 -0.367951 0.121876 0.521426 0.140105 -0.134115 0.909541 0.104853 0.622612 -0.478876 -0.531199 -0.104817 -0.898796 -0.367863 0.515520 -0.287906 0.408436 -0.488488 -0.085675 0.306380 0.451773 -0.403275 -0.672563 0.425336 -0.531568 -0.104157 -0.287249 -0.155047 -1.010352 -0.772074 -0.002898 0.118050 0.468409 -0.256358 -0.297716 0.267375 0.308886 -0.886312 -0.715281 -0.542155
still 0.338055 -0.284291 0.296873 -0.475652 -0.134056 -0.203927 -0.189148 -0.062863 -0.340920 -0.244407 0.363430 -0.619100 0.222396 0.886215 0.498764 0.055247 0.129840 -0.433712 0.705152 0.076764 0.688691 -0.288880 -0.189940 0.165264 0.281938 0.112277 -0.301913 0.358034 -0.141312 0.239375 0.428766 0.578362 0.131617 0.657391 0.172954 -0.327507 -0.308692 -0.246950 -0.516371 0.009989 -0.478561 0.243018 0.039176 -0.701384 0.275259 0.181780 -0.134344 0.068575 -0.307105 0.289669
who -0.481582 -0.790789 0.688935 -0.633407 0.127645 0.037976 0.234368 0.326506 1.150076 0.567644 0.908059 0.721404 0.075133 -0.727179 0.127226 0.048521 0.130117 0.433631 0.802562 0.006394 0.474828 -0.707466 0.614801 0.708884 0.666580 0.114182 -0.684932 -1.275956 0.064888 0.174480 -0.215368 -0.884198 0.428062 0.747017 0.385767 -0.229132 0.227646 0.496046 -0.039615 -0.047704 -0.508631 0.373277 0.555850 -0.144733 -0.474746 -0.112898 -0.435127 0.168741 -0.382515 0.880061
$ 0.312029 0.128192 0.346542 -0.109532 0.539231 -1.058104 0.667193 0.506961 -0.524641 0.233563 0.809690 -0.273519 0.229220 -0.980708 0.270365 1.000664 1.280167 -0.729325 -0.258091 -0.483009 0.358751 -1.088928 -0.983696 0.177279 1.349301 -0.830597 -0.649412 0.031750 -0.547736 -0.030750 -0.561153 0.185789 -0.234980 0.062183 -0.557763 0.845532 0.615014 -0.475051 -1.056193 0.448942 -0.879974 -0.183176 0.060381 -1.240675 -0.309148 -0.247624 -0.947918 -0.220750 0.915688 0.904878
everything -0.516484 0.143087 0.118723 0.050389 -0.825982 -0.888419 1.310471 0.025739 -0.355644 -0.183027 -0.002499 -0.296924 0.080607 -0.066209 -0.355910 -0.017392 -0.147655 -0.702239 0.730460 -0.439632 1.098922 -0.072004 0.052443 -0.846884 -0.124137 -0.494956 0.465135 -1.112661 -0.598336 0.187093 0.055750 -0.187122 -0.973914 0.636023 -0.757222 -0.168039 -0.498060 0.129968 0.083894 -0.836781 -0.107518 0.312324 0.003453 0.282469 -1.233723 -0.398551 1.078695 -0.069234 -0.150368 0.010350
us -0.207796 0.285122 0.064874 0.043297 -0.330594 0.321325 -0.583873 -0.494832 -0.714806 0.852485 0.355256 -0.174652 -0.535971 -0.534944 -0.272918 -0.007620 0.839022 0.265634 -0.439039 0.957113 0.141271 -0.832881 0.454505 0.123668 0.749060 -0.461196 -0.314929 0.074132 -0.061539 -0.872605 -0.489114 0.205244 -0.083454 0.512903 -1.190889 -0.796097 -0.848861 -0.159819 0.302696 0.289037 0.059683 0.403229 -0.207751 0.203937 0.632595 -0.974875 0.771682 -0.274102 0.293149 0.059678
A 0.521824 -0.379673 -0.130641 0.049719 0.373907 0.620363 0.379203 0.596754 0.519202 -0.385277 -0.479099 -0.860635 0.107843 -0.600924 0.588078 -0.602827 -0.077711 0.652440 0.065592 -0.536791 -0.232632 -0.917960 0.143966 0.743114 0.121008 0.562828 0.266401 -0.102367 0.199468 0.773313 -0.086246 -0.291911 0.447227 -0.552273 0.570650 -0.058725 0.032675 0.354118 -0.148586 -0.864226 0.437431 -0.327514 0.444128 0.252762 -0.117609 0.059148 -0.087586 0.674948 -0.594778 0.164473
fast -0.048313 -0.150709 -0.690297 -0.230433 0.357787 -0.494053 0.567703 0.129311 -1.367809 -0.408359 0.964316 0.864689 0.112688 1.026635 -0.176971 -0.726571 0.765830 -0.625075 0.703401 0.105260 -0.442289 0.175124 0.177899 0.608326 1.101986 0.670830 0.683372 0.029793 0.548468 -0.667931 -0.475043 0.362660 -0.064042 0.026293 -0.741988 0.464917 -0.593998 -0.492285 0.528731 -0.651708 0.978436 0.152007 -0.458778 -0.442492 0.986510 0.338814 -0.126321 -0.305631 0.325651 -1.193223
staff -0.361931 0.835838 -0.962446 -0.066099 -0.803529 -0.137202 -0.550687 -0.406405 0.149031 -0.099080 -0.485652 -0.280707 -0.197975 -0.080614 0.795618 -0.298616 -0.035215 0.435664 0.392160 -0.694395 -0.130958 -0.117906 -0.510816 -0.624795 0.052550 -1.092181 -0.424151 0.219696 -0.634843 -0.552881 -0.423932 -0.054772 0.001362 0.279453 -0.536320 -0.820130 -0.783573 0.784830 1.039159 -0.010055 -0.559882 0.285568 -0.853939 0.403469 0.655511 0.513308 0.321681 0.221611 -0.213112 -0.761108
work -0.274567 0.482436 -0.231790 -0.404105 -0.764878 -0.464996 -1.342249 -0.187352 0.298591 0.225416 0.660054 0.300936 0.191208 0.496492 -0.358461 0.403178 0.380982 0.295799 0.704241 0.347604 -0.119819 0.969767 0.577464 -0.469084 0.478519 -0.519957 -0.696024 -0.914999 -0.474620 0.248516 0.190536 -0.110879 -0.271976 0.450241 0.171428 1.154529 0.360817 0.548852 0.433962 -0.154522 -0.408211 0.011220 0.587887 -0.801298 0.140461 0.032021 -0.033462 0.038018 0.036598 -0.254285
better 0.746187 0.003923 -0.052463 0.923179 -1.484635 -0.147192 0.054060 0.722976 -0.519976 0.543891 -0.201021 0.640602 0.138061 0.213347 0.057412 0.798435 -0.256048 0.161272 0.007276 -0.510326 -0.567915 0.196608 -0.319143 -0.507716 0.613519 -0.003671 0.160921 0.368184 0.027779 0.111790 0.224748 0.041464 1.298158 0.044916 0.781005 0.614358 0.548611 -0.196759 -1.099248 0.524427 0.351043 0.135091 0.803772 0.000945 -0.379456 0.603200 0.694865 0.755934 -0.371422 -0.147483
buy 0.263605 0.572512 0.747322 -0.039590 0.166998 -0.996493 0.399870 -0.282881 0.069758 -0.082417 0.104088 0.765205 -0.594856 0.247616 -0.162354 0.327013 -0.518709 0.231984 0.121202 0.262230 -0.365353 0.165979 1.024338 0.332765 0.340633 -0.084866 -0.199524 -0.479224 0.006546 0.162538 -0.297685 -0.003188 0.158834 0.052047 0.668011 -0.470346 1.364463 0.154022 -0.217560 0.915390 -0.048052 -0.144584 -0.266530 0.346288 -1.124305 -0.237256 -0.522878 1.303633 0.859818 -1.270220
looking -0.425606 -0.757802 -0.090802 0.712851 -0.139814 0.287139 1.260240 0.034422 0.756316 0.116165 0.336039 1.425316 -0.231131 0.419634 -0.903187 -0.025132 0.558615 0.446934 0.541696 0.424051 -0.579650 -1.161659 0.644214 0.695979 1.017562 -0.681259 -0.006585 0.758078 -0.144652 0.899420 -0.275491 0.064802 0.160932 0.985946 0.218383 -0.141477 0.367537 0.571159 -0.173500 0.069511 -0.245295 0.222446 -0.004826 -0.179964 0.285262 1.022271 -0.710077 -0.127286 -0.383043 -0.580509
new -0.241093 0.314329 0.194720 -0.518334 -0.339842 0.007079 -0.754177 0.062196 -0.009539 -0.094311 0.161899 0.076799 -0.020788 0.012991 -0.368208 -0.087288 -0.181969 0.222931 0.326399 -0.146465 -0.184864 -0.116724 0.778122 0.323235 0.477916 -0.402237 -0.753120 -0.469245 -0.248342 -0.083731 -0.301455 -0.104348 -0.080737 0.114496 1.322912 0.272007 0.905765 0.304206 0.563238 -0.144231 -0.054580 -0.675548 -0.018698 -0.060276 -0.131878 0.428939 -0.762651 1.585937 0.013857 0.372314
since 0.416808 0.319119 -0.200783 -0.442270 -0.385614 -0.095132 -0.527139 -0.647141 0.323186 -0.110549 -0.047338 -0.164720 -0.274720 0.039087 -0.517168 0.116219 0.468640 -0.694226 0.342925 0.015925 -0.240572 0.642360 0.111743 0.204969 0.223551 0.483251 0.210031 0.805636 -0.226205 0.421813 0.217596 0.123096 0.208077 0.617700 0.637769 -0.484916 -0.330394 -0.424134 -0.811814 -0.552448 -0.274150 0.405439 -0.185250 0.182293 0.030376 0.257032 0.291477 -0.387262 -0.692974 0.281268
way 0.850437 -0.706292 0.063271 0.754625 -0.581462 0.230238 -0.565536 1.407278 -0.194561 -0.607407 -0.306530 0.251552 0.103793 0.166444 -0.852571 0.564361 -0.074750 0.024746 0.188231 -0.330504 0.893255 -0.094006 0.972915 0.196655 -0.119357 0.441703 0.242742 -0.517374 0.204257 -0.553622 0.629852 0.330459 0.665760 0.310438 0.499479 -0.409348 0.304063 -0.077017 -0.233562 0.944629 0.701653 0.378625 0.028688 -0.091894 0.997847 -0.621727 0.057559 0.522997 0.160820 0.270813
went -0.373285 -0.040336 0.725026 -0.549750 -0.280063 -0.659812 -0.444288 -0.939639 0.302334 0.514160 0.276040 -0.540533 -0.155784 -1.079358 0.402943 -0.201957 0.716478 0.336602 -0.009278 -0.185624 -0.670463 -0.390909 0.199802 0.989029 -0.135460 -0.758182 0.425737 -0.107640 0.524081 -0.267486 -0.632320 0.106842 -1.216729 0.933405 1.016496 -0.302554 -0.416273 -0.050626 0.504199 -0.592567 -0.483283 -0.107035 -0.763253 0.125809 -0.121491 -0.357969 0.095230 -0.853327 -0.215505 0.231341
excellent -0.043492 -0.292821 -0.312278 -0.176591 -0.499490 -0.279595 -0.670868 0.090625 -0.898872 -0.549879 -0.623026 0.437159 -0.101557 -0.462535 0.138414 0.077636 0.369822 0.364428 0.109584 -0.343981 -0.704740 0.609081 0.107126 0.081469 -0.065539 -0.146441 0.354367 -0.552701 0.949043 -0.470643 0.138470 -0.035146 0.578096 0.043839 -0.553945 -0.839012 -0.965154 0.205658 -0.635552 -0.823375 1.076341 0.907156 -0.317463 0.257940 0.866496 0.203536 0.388756 0.343505 0.034317 -0.151481
quality -0.449445 -0.146049 -0.478015 -0.459466 -0.072399 -0.311690 -0.033663 1.309850 -0.329225 -0.240119 -0.305910 0.186389 0.437772 -0.320797 -0.372394 0.208329 -0.247617 0.294809 0.576206 0.127475 -1.197700 -0.144142 -0.296543 0.127823 0.634927 -0.461361 0.210201 -0.228795 0.923472 0.241982 0.076681 -0.105543 -0.428599 -0.749792 0.167981 0.595356 -0.081070 -0.130983 -0.004303 0.039263 1.165108 -0.110298 0.393309 -0.157997 0.192155 -0.144270 -0.648466 0.736774 -1.163011 -0.392389
sushi -0.547422 0.070726 0.425986 0.013864 0.322057 0.318877 -0.265548 0.707286 -0.223492 -0.044217 -0.399651 0.667777 -0.372244 -0.030447 -0.147495 -0.480775 -0.766550 -0.084696 0.427160 -0.842353 -0.680036 -0.251999 -0.168812 -0.227211 0.325005 -0.294452 -0.316928 -0.209291 -0.260829 0.044568 -0.591724 -0.261986 0.068568 -0.094360 0.240236 -0.623762 -0.132518 0.030102 -0.531916 -0.400169 -0.012242 -0.048314 -0.573242 0.028913 0.013515 0.426423 -0.325168 0.821329 -0.080131 0.050087
bad 0.122291 0.199828 -0.082552 -0.256655 -0.905281 -0.031890 0.604945 0.586919 -0.145601 0.528598 -0.408531 -0.158049 -0.003497 -1.580076 -0.679889 0.737170 -0.372975 -0.436800 0.304659 -0.303044 -0.606009 -0.087031 0.041364 -0.029831 0.585752 0.110787 0.497448 -0.835075 0.323249 -0.502012 -0.695186 0.223000 -0.545514 0.728905 0.534028 0.622223 0.031182 -0.682048 -0.443539 -0.664858 0.721656 -0.113761 -0.671344 -0.055631 -0.102309 -1.051457 -0.965741 0.056076 -1.239687 0.031277
made -0.132498 0.322382 -0.081375 -0.292201 -0.886559 0.267530 0.368185 0.039882 -0.470106 0.509932 0.079328 -0.362711 -0.086412 -0.607154 0.139015 -0.084166 0.298906 -0.257406 0.656042 -0.178484 0.420407 -0.499033 -0.054218 0.036186 0.263388 -0.453328 0.285300 -0.160276 0.195418 -0.820606 -0.050596 -0.064075 0.415458 0.827501 -0.053974 -0.241079 -0.497068 0.392691 0.285096 -0.364573 -0.011215 -0.257056 0.342342 -0.247918 0.244780 -0.459179 0.464704 0.241301 -0.024567 0.214210
menu -0.561486 0.034055 0.412270 0.107504 0.493279 -0.694205 -0.017002 0.558422 -0.156728 -0.525787 -0.353523 0.200428 1.154808 -1.223960 0.186493 0.671193 0.762285 0.734096 0.154077 -0.027300 -0.586934 -0.455413 -0.295658 0.264341 0.237733 -1.236853 -0.220187 -0.470688 0.260837 0.040332 0.327752 -0.438630 -0.690173 0.006722 0.135928 -0.370821 -0.561946 -0.255461 -0.527936 -0.363602 -0.258493 0.396419 -0.335596 -0.048627 0.076420 -0.068839 -0.633297 -0.815753 -0.340870 -0.194370
take -0.124171 0.331012 0.166569 0.115168 -0.333920 -0.347920 -0.692747 -1.236561 -0.059115 -0.087636 -0.157085 0.093365 0.153439 0.311125 -0.464909 -0.234461 0.102044 0.379682 0.088588 0.391539 0.412939 0.150128 1.017634 0.534638 0.246207 0.139182 -0.283042 -0.436384 -0.099421 -0.051776 0.226948 -0.057161 0.070449 0.611001 0.584802 0.017107 0.090619 0.403497 -0.028021 -0.189344 -0.143501 0.007456 0.792362 -0.445039 -0.120887 -0.207658 0.741203 0.128856 0.439813 -0.172238
then 0.186332 0.041205 -0.699540 0.285530 -1.018508 0.153380 -0.022343 -0.867696 -0.228449 -0.233074 0.116099 0.246637 0.064055 -0.011411 -0.548901 0.590339 0.627947 0.524811 -0.260876 0.544817 0.103411 -0.171084 0.400520 0.014058 0.493566 0.153324 -0.499885 0.403947 -0.499316 0.512594 0.706260 0.025934 -0.022427 0.334566 0.085079 -0.063955 0.235023 0.001218 -0.058184 -0.089477 0.157191 0.341749 0.264242 0.087791 -0.057338 -0.039053 0.140353 0.410659 -0.242179 -0.103528
many -0.581999 0.636684 -0.536732 0.554337 0.424861 0.295427 -0.424115 0.781917 0.988002 0.762529 0.281814 1.291724 0.326005 -0.319685 -0.097258 -0.948748 -0.078316 -0.092142 0.373005 -0.152949 -0.113105 -0.256360 0.385156 0.138536 1.298859 0.211559 0.008167 -0.077758 -0.418682 -0.429927 -0.182273 -1.467528 1.459932 0.033419 0.050895 0.302728 -0.342254 -0.067737 -0.567342 -0.311203 -0.454527 0.756809 0.266923 1.627155 -0.068695 0.630629 1.063924 -0.929484 -0.406316 0.479826
most -0.427692 0.157599 -0.412163 -0.487775 0.483390 0.608220 -0.623951 0.790471 -0.823398 0.326219 0.260281 0.811697 -0.388311 0.226816 -0.135900 0.749684 -0.517126 0.227363 0.205017 0.150859 0.552765 0.442478 -0.218281 0.157292 0.282494 0.001619 -0.518038 0.294559 0.209242 0.236804 0.480503 0.072665 0.777878 0.346387 0.374510 -0.453368 -0.268204 0.496591 0.031810 0.528755 -0.468038 0.279822 0.059851 -0.116249 0.742538 0.167713 0.024456 0.266976 0.513808 -0.070734
wait 0.735032 0.683756 0.697344 0.530978 -0.668285 -0.756971 -0.367514 0.710979 0.338256 -0.393488 0.265616 -0.313826 -0.425376 -0.160130 0.296223 0.009932 0.239114 1.283847 0.539331 -0.924083 0.025303 -0.400237 -0.985038 -0.894310 0.074428 -1.085927 -0.122850 -0.958460 -0.562397 -0.130391 -0.181763 -0.233444 -0.391546 0.057807 -0.276840 -1.573157 -0.160851 0.300168 0.300162 0.233983 -0.308467 -0.353587 0.283406 0.705875 -0.203263 -0.703402 1.246416 0.223699 0.049660 -0.123000
It's -0.088912 0.255807 -0.350044 -0.128498 -0.340911 -0.109337 0.932305 0.762740 -0.312205 -0.540962 0.050755 -0.435268 0.668703 0.012162 1.403003 -0.200718 0.803983 0.032043 0.392380 -0.750247 -0.250388 -0.268591 -0.198060 -0.918713 0.523239 -0.105262 0.474745 -0.351327 -0.638405 -0.004525 0.179650 -0.231663 0.153055 -0.296484 -0.866108 0.463732 -0.650964 0.521454 0.356927 -1.103106 0.217938 1.350174 -0.143976 -0.055294 -0.469341 0.348243 0.276214 -0.348091 -0.415129 -0.871603
bought -0.035715 0.333715 0.318788 -0.405713 -0.312080 -1.350268 0.590185 -0.462301 -0.139839 -0.096887 0.021981 -0.168826 -0.147326 0.176099 -0.903703 0.044657 -0.116019 -0.808991 0.395050 0.170795 0.003353 -0.400357 0.362376 0.248288 0.658075 -0.407714 -0.157983 0.845051 -0.926478 1.119478 0.269570 0.557184 0.270123 0.151099 1.028251 0.161871 0.725864 -0.815834 -0.726315 -0.621747 -0.342703 -0.397355 0.107975 0.103849 -1.245286 0.023002 0.084492 0.144326 -1.273521 0.637105
dinner -0.078714 -0.056385 1.170371 -0.447826 -0.972065 -0.063022 -0.031335 -0.688625 -0.692976 -0.660173 -0.473251 -1.052103 -0.437298 -0.577035 0.252381 0.283841 0.546581 0.041893 0.182015 -0.211777 -0.675435 -0.794818 -0.207269 0.158971 0.416447 -0.624555 -0.280764 0.312636 -0.612756 -0.057434 -0.985921 -0.280331 -0.334283 -0.118355 -0.121587 -1.190682 0.022470 0.364806 -0.936650 1.266126 -0.738317 0.225555 0.512778 0.229330 -0.529974 -0.944056 0.591351 0.819255 0.295055 0.312440
times 0.586008 0.575447 -0.261256 -0.534228 0.538998 -1.049967 -1.143025 -0.111220 0.463198 -0.195345 0.625344 -0.277819 -0.165043 -0.876943 0.091604 -0.132680 0.883793 -0.194359 0.162526 -0.273622 -0.117826 0.008139 -0.702051 0.422095 0.685778 -0.282007 -0.150451 0.759085 -0.193310 0.381555 0.521660 -0.588438 -0.077916 0.385028 0.275452 -0.483898 -0.707970 -0.328015 -0.726968 -0.656277 -1.316600 0.234763 -0.106448 0.333866 0.238696 0.799836 0.324788 -1.153566 -0.489415 0.644605
every 0.320311 0.125922 0.551198 0.632214 -0.732098 0.018816 -0.346720 -0.495336 -0.165012 -0.212391 -0.034959 -0.024528 0.073619 0.121976 -1.187186 -0.659449 -0.232910 -0.249270 0.162152 -0.266160 0.265083 -0.281961 0.205735 0.615340 -0.052540 -0.068606 0.690584 0.090285 -0.492330 0.613646 0.253531 -0.249254 -0.586498 1.277901 0.881307 0.318178 0.150765 0.082533 -0.889835 0.357474 -0.540427 0.095691 0.393999 -0.040532 0.401708 0.375856 0.546072 -1.126341 0.138093 0.314809
laptop. -0.437459 -0.212509 -0.389825 0.517457 0.091785 -0.320126 0.528674 0.535315 -0.527882 -0.297080 -0.136706 0.073333 0.429414 0.789340 -0.248781 -0.678942 -0.269127 0.644772 0.415649 -0.963215 -0.326918 -0.878199 0.010366 0.470665 0.090934 0.082128 0.041313 -1.389278 0.348155 -0.896901 0.363859 -0.483803 -0.130187 0.067356 0.454661 0.395614 0.622985 -0.071355 0.062164 -0.941664 0.872280 -1.362440 0.479104 -0.701652 0.361274 -0.050634 -0.141369 0.427232 0.435652 -0.119318
need -0.060651 0.298759 0.223058 0.524541 -0.128532 -1.058679 0.529520 -0.480182 0.263814 0.290722 0.640117 0.283305 0.224557 -0.322576 -0.130045 0.295529 0.225035 0.108851 0.036895 0.373582 0.986001 -0.794911 1.008516 -0.404026 0.368450 -0.314836 -0.245040 -0.786436 -0.122511 0.320552 0.498859 0.351335 -0.194701 0.583504 0.069054 -0.060795 -0.302461 0.001821 0.583203 -0.202882 -0.340439 0.408238 -0.127767 -0.359602 -0.773126 -0.840160 0.321167 -0.198220 -0.241832 -0.636758
2 0.897472 -0.276078 0.132053 -0.264738 -0.251482 0.100199 -0.258221 0.138306 -0.297205 0.339510 0.174223 -0.464016 -0.671225 -1.014271 -0.388547 0.343643 0.242765 0.053192 0.162133 -0.167261 0.067640 -0.060763 -0.354752 0.953369 0.466883 -0.543028 -0.312483 0.549404 -0.379207 0.211756 -0.408108 0.094766 0.023050 0.474514 0.317518 0.062764 0.680425 0.130485 -0.130844 -0.124441 -0.277876 -0.605905 0.255426 0.134894 0.224723 0.382443 -0.000164 0.710911 0.388622 1.382596
enough 1.189110 -0.287064 0.326430 -1.014208 -0.039601 -0.909047 0.773989 0.622949 -0.267514 0.471120 0.955837 0.609654 -0.592589 -0.288180 -0.275859 0.811763 0.966658 0.757198 0.939544 0.422968 -0.072691 -0.083404 0.193797 0.238084 0.352565 -0.338153 -0.106581 -1.008885 0.214030 -0.014743 -0.223342 -0.146864 0.947644 0.602560 -0.697883 0.658921 0.343666 0.629298 0.171805 -0.523438 0.441778 -0.372544 0.673379 -0.839715 0.746154 -0.462789 0.223051 0.021408 0.105449 -0.125970
hard 1.145325 0.215948 0.788550 -0.325601 -0.461963 -0.973821 -0.384629 0.567264 -0.734582 -0.046029 0.698400 0.126685 -0.130212 0.363316 -0.515885 -0.715351 0.096744 -0.499885 1.020640 0.903905 0.048092 0.897555 -0.269497 0.282491 -0.686678 -0.914454 0.989587 -0.144224 0.867238 0.216709 0.684350 0.143573 -0.557159 0.669015 -0.338799 0.125242 -0.368623 0.158948 -0.061968 -0.028717 0.734378 0.326713 -0.023329 0.366463 0.308630 0.716928 0.275304 -0.139456 -0.398545 0.161460
try 0.746060 -0.116497 0.435168 1.229371 -0.057442 -0.084855 -0.004211 -0.080022 0.112513 0.035631 0.041231 0.489213 -0.506995 0.078931 -0.418072 -0.277256 -0.416146 0.077240 0.154729 -0.545423 -0.116985 -0.462186 0.031712 -0.489747 0.103106 0.277477 -0.347319 -0.706604 -0.006733 0.127622 -0.278494 -0.059797 0.109249 0.223926 0.003092 -1.093826 -0.253214 0.034031 0.261497 0.888407 0.553453 -0.106449 0.183118 0.122839 -0.317466 -0.377318 0.401440 1.260022 0.818597 -0.676156
how 0.259660 0.034722 0.113548 0.338817 0.463405 -1.282382 -0.216102 -0.249127 1.125016 0.795307 0.763927 1.054677 0.028897 -0.014932 -0.307011 -0.687764 -0.304346 -0.300666 0.011057 0.131669 0.221291 -0.123384 1.323816 -0.000502 0.320618 0.227094 -0.381874 -0.468116 -0.281153 -0.085700 -0.177070 0.131110 0.749617 -0.486245 -0.211258 0.445973 -0.102408 -0.107313 0.431327 -1.003750 0.424527 0.341362 -0.094445 0.135547 -0.221251 0.063710 0.564132 -0.771459 -0.027202 0.438694
life -0.434632 0.027571 -0.025240 -0.513753 -0.302444 -1.479087 -0.573252 -0.338484 -1.022881 -0.398656 -0.691549 -0.208148 0.362501 -0.076673 -0.347883 0.596125 1.031873 -0.668676 0.542040 0.565461 -0.000260 1.143401 0.491608 0.179214 -0.412539 -1.257516 0.077400 0.189143 1.106402 0.203255 0.415779 -0.191188 0.048181 -0.161539 -0.568967 0.389225 -0.407982 0.935418 -0.266525 0.054095 0.108452 0.365798 0.759673 -0.834779 -0.372856 0.191368 0.195828 0.887388 0.683611 0.540389
people -0.052478 0.061296 -0.057710 0.627519 -0.354359 0.327829 -0.471827 0.212681 0.762428 0.514863 0.025901 0.855973 0.158884 -0.691444 0.515021 0.234253 -0.089122 1.587786 -0.046163 0.416765 0.284755 -0.263071 0.596085 0.164710 0.835286 -0.782824 -0.359695 -0.161764 -0.125138 -0.059029 0.250677 -0.037541 0.486352 0.711198 0.318392 -0.251562 0.326323 0.235868 0.387477 -0.602842 -0.605816 -0.029207 0.217094 -0.405806 -0.022179 0.340063 -0.311170 -0.207643 -0.166249 0.110431
say 0.238898 0.505632 -0.055188 -0.431581 0.687498 -0.352615 0.225944 0.464552 0.856184 1.041979 0.168896 0.756122 -0.164585 -0.807831 -0.139381 0.676733 -0.910063 -0.012388 0.274627 -0.375379 0.186506 0.576582 0.380924 -0.188262 0.069124 -0.055142 -0.467321 -1.107560 0.245543 0.845352 0.440105 0.224692 1.151322 1.006702 0.187639 0.168652 -0.365905 0.089744 -0.124230 -0.922809 -0.330665 0.144210 -0.128549 -0.879956 -0.007392 -0.516465 0.264349 -0.755968 -0.564743 0.136523
though 0.044136 -0.029250 -0.182923 -0.005463 -0.567489 0.245766 0.264776 0.893030 0.003398 0.383663 0.215273 0.035488 -0.006053 0.069380 0.148956 0.585057 0.173454 -0.224168 0.405556 -0.643318 0.065077 0.945769 -0.778076 -0.638646 0.762829 0.212296 -0.443915 -0.662006 -1.076641 0.106743 -0.926688 0.273996 -0.429429 0.196149 -0.447510 0.071641 -0.000405 -0.109149 0.414445 -0.188587 -0.314092 0.718304 -0.257398 0.195546 -0.420116 0.154482 0.569887 0.783761 0.282239 -0.286507
I've 0.859090 0.646341 1.075573 -0.588171 -0.734234 0.443733 0.135661 -0.592844 -0.615278 0.084774 -0.395545 0.168349 -0.597646 -0.377058 -0.657738 -0.410894 -0.387490 0.143796 0.940542 0.181088 -0.071319 -0.127308 0.404450 0.365231 0.257910 0.235284 0.758125 1.452833 0.074719 0.446981 0.142550 -0.340585 1.227229 0.536806 0.213858 -0.825756 0.292496 -0.097734 -0.596149 -0.516278 -0.363898 -0.054959 0.055337 0.865450 -0.797300 0.792286 0.258674 1.408540 -0.665949 0.178582
another -0.128822 -0.708273 0.608376 0.405466 -0.481414 -0.584512 -0.137597 -0.038997 0.045628 0.266633 -0.184472 0.332452 -0.768843 -0.576797 -0.169243 0.550657 0.430423 -0.298300 0.242851 0.201174 -0.010838 0.272307 0.543190 0.462515 0.041438 -0.223001 0.145586 -0.013535 0.274702 -0.489277 -0.545805 -0.042839 -0.238620 0.650256 1.229110 -0.383080 1.054438 -0.512274 -0.692397 1.559721 -0.339083 -0.306162 -0.445966 0.784231 -0.760493 0.028805 -0.209728 0.974701 0.978241 -0.445632
going 0.362199 0.702157 0.040763 1.050435 -0.020521 0.012474 -0.043773 -0.429366 0.853230 0.495034 0.363193 -0.324781 0.239097 0.862917 0.750611 -0.321172 0.127078 0.064031 0.895315 -0.673209 0.925519 -0.455819 0.188294 -0.114355 0.121643 -0.387043 -0.106530 0.037003 0.064872 -0.335205 0.304716 0.185486 -0.072363 0.898136 0.712787 -0.569712 -0.200433 0.052115 0.489497 0.159120 -0.711777 0.118292 0.120255 -0.284498 0.382748 0.229502 0.965851 -0.618756 0.187024 -0.723578
keyboard 0.428596 0.529932 -0.386393 0.094315 0.028914 0.906019 -0.431839 -0.062615 0.121202 -0.443189 0.169052 -0.537936 0.003165 0.502699 -0.733578 -0.903032 0.279065 -0.484050 0.552496 0.220522 0.238671 0.399619 -0.287912 0.003078 -0.238248 0.033257 -0.012284 -0.152968 0.387849 0.034441 0.023937 -0.375203 -0.916799 0.643185 0.085129 0.199651 -0.029504 0.413932 0.814403 -0.443981 0.109433 -0.273871 -0.505343 -0.088057 0.804542 0.695757 -1.121281 1.094148 -0.049045 -0.816173
last 0.203489 0.524369 0.534064 1.112960 -0.769387 -0.772280 -0.907007 -0.717464 -0.286534 0.347676 -0.115962 -0.469338 0.194800 -0.045079 0.111839 0.030035 0.636405 -0.714195 -0.056538 -0.531778 -0.532307 0.230560 0.042563 0.325668 -0.467905 -1.236582 0.119748 1.032615 -0.183629 0.427255 -0.007340 0.018403 -1.200868 0.099773 0.752420 0.022023 -0.051606 0.294521 -0.819968 0.660979 -0.665615 -0.154673 -0.283429 0.190411 -0.502453 0.511575 0.713530 -0.115748 0.565578 0.333086
long 0.098843 0.211348 0.756002 -0.281754 -0.113478 -0.255184 -1.380387 -0.776496 0.541529 0.565108 0.433863 -0.104102 -0.275264 0.291882 -0.077173 -1.134207 1.269982 -0.697802 0.215522 0.202239 -1.199214 0.802368 0.588673 0.466296 -0.010240 -0.681969 -0.158894 -0.236175 0.355911 0.369777 -0.344871 -0.442151 -0.628522 0.618110 0.310463 0.765569 -0.710321 0.397755 -0.005892 0.064945 -0.306064 0.360301 0.641590 -0.460056 0.365038 1.043071 0.560063 -0.149444 0.754355 0.871574
few 1.003815 0.284704 0.495422 -0.314039 0.273972 -0.597059 -0.612954 -0.234890 0.703846 -0.440426 0.349879 -0.585035 -0.220273 -1.003788 -0.255120 -0.187111 0.585675 0.030274 0.014290 0.263856 -0.188921 -0.483836 -0.235627 0.951714 0.785438 -0.266096 -0.375022 0.372232 -0.370023 0.245769 -0.202838 -0.160998 0.109005 0.516021 0.247557 -0.090464 0.350875 -0.651273 -0.333497 -0.185166 -0.975108 -0.121899 0.327209 -0.000910 0.235192 0.363399 -0.328401 -0.445721 -0.226704 1.129493
small 0.482072 -0.277525 -0.205465 0.297953 -0.351138 -0.097687 0.151135 1.696963 -0.617835 -0.850958 -0.099515 -0.031923 0.076459 -0.739266 -0.814466 0.372576 0.424414 0.873353 0.401815 0.180888 0.362242 -0.071698 -0.647677 0.186535 0.668570 -0.625267 0.124933 -0.149682 -0.068858 0.190721 0.176770 -0.463156 -0.191797 0.635648 -0.372779 0.394873 0.201129 -0.254335 0.403598 -0.294969 -0.516482 -0.196048 0.657991 -0.074395 0.377943 0.655373 -0.229807 0.068926 0.448701 -0.125911
two 0.423380 0.504528 0.043655 0.106105 -0.854190 0.445661 -0.151403 -0.199930 -0.437039 0.636775 -0.479828 -0.512429 -0.406030 -0.739490 -0.154073 0.491137 0.302693 0.609390 -0.016100 0.426075 0.180853 -0.266249 0.214144 0.915511 0.061421 -0.781519 0.024936 1.384594 -0.572563 -0.244941 -0.048665 0.139958 0.185809 0.472021 0.579590 -0.330387 0.751640 -0.255628 0.060389 -0.105503 -0.843290 -0.832903 -0.400698 0.245338 0.314164 -0.207914 0.260341 -0.236442 -0.101749 0.527456
used 1.094995 0.130276 0.328716 -0.108071 -0.485482 0.549696 0.015681 -0.326644 0.229487 0.025100 -0.076578 0.008592 -0.305317 -0.562561 -0.443214 0.021692 -0.292616 1.037566 0.231732 0.189333 -0.237942 0.362462 0.466112 0.808798 0.345136 1.003416 0.700732 -0.407997 0.425135 0.942711 -0.354099 0.299866 -0.310874 0.980410 0.561668 -0.032959 0.022791 -0.108039 0.324932 -0.670798 0.649125 0.179642 0.226585 0.779452 -0.279293 0.355634 0.380705 0.291072 -0.203369 -0.892872
around 0.291202 0.187772 -0.190595 0.516108 0.216213 -0.053999 -1.100529 0.505521 0.167962 0.864804 1.466418 0.740385 -0.181034 -0.199356 -0.341161 -0.295909 0.004737 0.218053 -0.236724 -0.057789 0.317030 -0.030627 -0.296157 -0.087742 0.159338 0.189536 0.072538 0.123283 -0.189920 0.168043 0.494153 -0.375619 -0.274552 0.467835 1.096513 0.278368 -0.132267 0.571487 0.079515 0.991178 -0.241532 -0.003625 -0.565121 0.534152 0.621307 -0.013604 -0.044589 -0.581969 0.158506 -0.441457
far -0.826646 0.432462 0.178805 0.965438 -0.710226 0.867384 0.071598 1.601504 -0.947763 1.001111 -0.367529 0.701180 -0.065861 1.290105 -0.557819 -0.752031 -0.668291 0.202550 0.712207 0.027682 0.573725 -0.127622 0.927497 -0.333011 -0.262111 -0.489496 0.629969 -0.212878 -0.346272 0.291513 0.218515 0.249420 0.022270 0.172329 -0.020618 -0.009093 0.209515 -0.055698 0.347528 -0.755426 0.448259 0.094979 0.449077 0.502651 -0.983953 0.036377 1.268660 0.605115 0.051064 0.298515
night 0.351578 -0.168700 0.874758 -0.006278 -0.570570 -0.764398 -1.142157 -0.035185 0.068524 -0.276927 0.013253 -0.316964 0.129023 0.115668 0.748132 0.165848 0.366194 -0.454891 0.288244 -0.574733 -1.154624 -0.090115 0.258996 0.310906 0.256164 -0.071272 -0.145658 0.662094 -0.877496 -0.356815 -1.018569 -0.151142 -0.229865 -1.216003 1.012771 -0.014325 0.778454 0.074493 -0.898079 0.944566 -0.442946 0.707735 -0.056651 0.784575 -0.775134 -0.151822 0.558897 -0.028012 0.097302 0.563181
perfect -0.702260 -0.476549 0.381608 -0.165150 -0.770843 0.786426 0.250838 0.000223 -0.381111 -0.639710 -0.039084 -0.244011 -0.310039 -0.278734 -0.518385 -0.924648 0.439906 -0.246745 0.442939 -0.518719 0.352482 -1.041612 0.057135 -0.444460 -0.160207 -0.171145 0.617191 -0.187996 -0.605312 0.058486 -0.104352 -0.601440 -1.248226 0.286852 -0.163408 -0.335044 -0.070519 0.624786 0.123723 -0.743768 -0.160677 -0.128420 0.032395 -0.142726 -0.741925 0.319850 -0.705645 0.332852 -0.434190 0.655942
them 0.209123 -0.187204 -0.232974 -0.271077 0.253627 -0.280323 -0.223925 -0.832223 -0.352930 0.781099 1.218792 0.677522 -0.703587 0.002660 -0.279034 0.815950 0.262192 -0.258391 -0.399329 0.713897 0.315310 0.118629 0.213144 0.123852 0.490392 0.813744 -0.484214 -0.369484 0.510082 -0.510415 -0.221950 0.534604 0.170817 0.448533 -0.131761 -0.063120 -0.065978 0.074968 0.286220 1.220332 0.362738 -0.386905 -0.336872 -0.417958 0.697372 -1.383336 0.041329 0.202590 0.787739 -0.589304
MacBook 0.100746 -0.246251 0.190249 -1.096420 -0.847060 -1.127952 -0.660490 -0.152615 0.244475 -0.063330 0.323119 -0.245654 -0.853298 0.077679 0.565099 -0.608436 0.710820 -0.624689 0.761624 -0.701379 0.090615 0.817306 0.997049 -0.183503 -1.089480 -1.010580 0.028266 0.338677 -0.726397 -1.038714 0.195148 -0.322873 0.182942 -0.235597 1.169400 -0.191279 0.941719 0.002966 0.800094 -1.102305 -0.439162 -1.220737 -1.326267 0.655550 -0.667477 0.627547 -0.329467 0.730759 -0.716467 1.000176
day -0.026153 -0.774958 -0.501789 0.112066 -0.645412 -0.089105 -0.661242 -0.060769 -0.643804 0.112858 0.588581 0.358794 0.121868 0.149336 -0.884542 0.017237 0.138585 -0.253108 -0.000188 0.266665 0.362757 0.096307 0.396938 0.853193 0.482916 0.551272 0.277467 -0.218044 0.171183 -0.303539 0.108906 0.385505 -0.956493 0.275327 0.776551 0.500980 0.398820 -0.814962 -0.202967 0.222093 0.994768 -0.172633 0.274538 0.201400 0.071057 -0.181615 0.147204 0.234861 -0.134708 0.369874
experience -0.201961 0.636803 0.402659 0.198747 -0.825482 0.472354 0.105060 0.125594 -1.015088 -0.540565 -0.881271 -0.067413 0.625991 0.528266 0.459453 -0.549954 -1.044127 0.198256 0.373936 -0.317466 -0.981581 -0.942394 0.188556 0.261945 0.117635 -0.338681 0.241838 -0.014106 -0.390756 -0.262816 -0.588913 0.280017 0.313843 -0.536008 0.011693 0.206012 0.371949 0.687677 -1.014436 -0.483901 0.423473 0.318735 0.397905 -0.399752 -0.022522 -0.381951 0.349311 -0.215006 -0.389743 0.201097
happy -0.543626 1.126724 -0.466244 -0.152382 -0.505865 -0.734342 -0.198553 -0.085362 0.108888 0.714172 -0.456710 -0.304680 0.678675 1.115513 -0.264376 -0.356277 -0.564720 0.408118 0.903416 0.514691 -0.617401 -0.534882 0.808347 0.248280 0.249788 -0.968927 -0.384993 0.789528 0.610752 -0.155097 -0.214170 0.596614 0.487169 0.009787 1.050682 0.218358 -0.081416 0.024144 0.570429 -0.201670 0.970109 -1.021506 0.143194 0.022115 0.854105 -0.923519 0.901994 -0.037746 -1.819575 -0.519670
again -0.739088 0.367942 0.590106 -0.000315 0.690284 -0.535538 0.188717 -1.246086 -0.215189 -0.005587 0.262706 0.190109 -0.633179 1.532301 0.098274 -0.956160 -0.197028 -0.387448 0.240041 -0.730871 -0.031474 -0.852576 -0.204128 0.288042 0.286611 -0.081779 -0.375583 -0.072149 -0.095223 -0.444414 -0.573912 0.503701 -0.866582 0.695309 0.144013 -1.658089 -0.244249 0.087329 -0.531704 0.020952 -0.181320 -0.445736 -0.246530 -0.642630 -0.380427 -0.524307 0.437317 0.115478 0.331765 -0.533627
being 0.388452 -0.012875 -0.304538 0.636314 0.298072 0.172948 0.217097 0.805899 0.210913 0.695121 0.491892 -0.036394 -0.222575 0.270200 -0.952071 0.360666 -0.029962 0.036124 0.400540 -0.174178 0.423497 0.083745 -0.311574 0.793075 0.398691 -0.190143 -0.433477 -0.025967 -0.438033 -0.126993 -0.473108 0.416049 -0.357869 0.138501 0.137838 -0.047479 0.379750 0.120425 0.496504 -0.036203 -0.124421 -0.372913 0.249243 0.130996 0.749288 -0.052069 0.633815 0.061690 0.989849 0.362144
bit 1.078575 0.302404 -0.353046 1.002953 -0.230374 -0.462435 0.526479 0.877554 -0.467026 0.200329 0.196842 -0.671094 0.490386 -0.325047 -0.157751 0.634722 0.528059 0.241900 0.364658 -0.150571 0.191132 0.374973 -0.495039 0.669253 0.554144 -0.569691 0.366758 -0.206630 -0.061700 0.826632 0.107387 0.585813 -0.733589 0.103928 -0.241984 0.146995 0.091886 -0.003835 0.044197 -1.076556 0.363335 0.343836 0.905476 0.024934 -0.320409 0.537418 1.254411 0.219274 0.962425 -0.091520
feel 0.690029 0.212166 -0.549624 0.432347 0.913213 -0.747617 0.209150 -0.341779 0.453058 0.994266 0.994398 0.055278 -0.131777 -0.980476 0.508884 0.348541 0.395119 -0.819993 -0.189848 -0.141157 -0.112936 -0.410636 -0.293669 -0.144532 0.857686 0.081802 -0.902057 -0.765197 1.306002 -0.000958 0.354404 0.438112 0.280621 0.113607 -0.075363 -0.435901 -0.564149 0.591347 0.347779 -0.814133 1.060328 0.093068 0.105680 -1.117418 -0.325930 -0.395578 -0.335411 1.400141 0.463121 -0.045417
friendly -0.424797 0.211335 -1.231858 0.599356 -0.146444 0.267924 -0.047387 0.738827 0.083791 -0.412592 -0.493484 0.459614 0.502990 0.693118 1.059304 -0.297062 -0.190524 0.922449 0.640214 -0.490867 -0.503282 -0.161665 -0.321100 -0.236974 0.324141 -0.403699 0.603170 -0.066695 1.045297 -1.110219 -0.262305 -0.060967 0.068359 0.355356 -0.194336 -0.649479 -0.981038 -0.141154 0.813870 -0.103108 0.451938 -0.174139 -0.564057 -0.304886 0.794946 0.197135 -0.515344 -0.116359 -0.117676 -1.354628
now 0.313809 0.143060 -0.710607 0.452760 0.029040 -0.774203 -0.418179 0.168444 -0.159034 0.181959 0.423847 -0.163166 -0.730367 0.166039 -0.728954 -0.326514 1.016726 -0.327782 0.434323 0.250198 0.164653 0.487292 -0.284240 -0.269147 0.187630 -0.438160 0.344633 0.716326 0.165303 0.507322 0.744106 -0.365235 -0.280121 0.542786 -0.319529 -0.408291 -0.154344 -0.423656 -0.161648 -0.849004 -0.300165 -0.546021 0.029698 0.290010 -0.337889 0.853377 0.683115 0.036124 -0.462499 0.091399
order -0.976083 -0.522630 -0.287240 -0.009612 0.072787 0.226635 -0.545379 -0.269569 -0.759090 0.286997 0.288359 1.197784 -0.138582 0.390969 -0.079651 0.447725 0.150999 0.810956 -0.407028 -0.057785 0.334138 0.213226 -0.022048 -0.057214 0.259288 0.149491 -0.301606 -0.431026 0.073949 -0.173421 0.001593 0.117313 0.082592 0.050941 -0.444677 -0.828571 -0.868994 0.404123 -0.153011 0.629654 0.172486 0.425069 0.511678 0.062160 0.494291 -0.401302 1.371757 0.032593 1.028225 -0.573029
table 0.308945 -0.624574 0.247050 0.678254 -0.578878 0.908140 -0.570560 0.140542 -0.194454 0.243148 0.766472 0.172177 -0.209177 -0.106105 -0.251449 0.614977 1.312625 1.380198 -0.044400 0.237391 -0.415112 -0.297047 -0.261289 0.353627 0.647162 -0.103467 0.124791 -0.442903 -0.088572 0.046986 -0.277174 -0.033116 -0.808255 0.051735 0.115613 -0.227724 0.301251 0.360931 0.043804 0.456393 0.556101 0.177848 0.702821 0.295942 0.142579 -0.100183 0.943748 0.329044 0.407614 -0.524737
years 0.310667 0.549863 -0.268758 -0.118485 0.503784 -0.714246 -0.540682 0.086752 -0.906473 -0.003120 0.496264 -0.323600 -1.158524 -0.209719 -1.236746 -1.115379 0.766552 -0.108580 0.260481 0.487940 0.405740 -0.041187 -0.547978 0.318887 0.157210 -0.403063 0.297442 0.756668 0.016590 0.142305 0.774457 -1.266405 -0.182219 0.473452 -0.404466 -0.801575 0.177101 -0.262166 -0.633971 -0.579727 -0.439395 -1.577608 0.302289 0.918540 -0.136682 0.504942 0.526816 0.259444 -0.363595 0.749402
You -0.076760 0.739032 0.052681 0.968781 0.006338 -0.098025 -0.180049 -1.191562 1.144467 0.806814 -0.303094 0.243015 0.095573 0.120481 0.598019 0.803768 -0.393301 -0.138888 -0.538619 -0.836794 -0.099678 -0.247002 0.246626 -1.080939 -0.242881 0.731434 -0.641886 -0.276334 0.505523 0.426601 -0.126216 -0.176801 0.220748 0.071752 0.647841 0.508858 -0.498372 0.441646 0.579908 1.422675 -0.305724 0.876152 -0.229197 -0.144441 -0.509256 -0.341866 0.222958 0.291210 -0.061240 -1.910592
amazing -0.355818 -0.881076 -0.114585 0.059757 0.068342 0.002189 0.087949 0.586716 -0.709341 -0.614011 -0.925015 0.660817 -0.368313 0.481452 0.255174 -0.163314 0.042775 -0.253612 0.459612 -0.636273 0.175461 0.107038 0.335042 -0.079540 -0.840441 -0.122880 0.248386 -0.308501 0.701401 -1.096104 0.301902 -0.023571 1.278743 0.017728 -0.695670 -1.083914 -0.771874 0.265913 -0.332126 -0.612824 0.553643 0.221367 -0.061241 -0.726428 0.671429 0.148411 -0.086971 0.067706 0.667983 0.143150
